svm_type c_svc
kernel_type linear
nr_class 2
total_sv 180
rho 740395417.26499975
label 1 -1
nr_sv 90 90
SV
1 1:297 2:77 3:60 4:77 5:83 6:16 7:23 8:10 9:20 10:13 11:8 12:21 13:17 14:14 15:15 16:25 17:22 18:27 19:13 20:26 21:13 22:914 23:53.872054 24:91737.45 
1 1:954 2:253 3:208 4:255 5:238 6:62 7:51 8:52 9:61 10:40 11:33 12:58 13:73 14:68 15:54 16:74 17:51 18:56 19:66 20:71 21:42 22:2894 23:51.677149 24:295304.22 
0.81094366075034863 1:5498013 2:1361361 3:1358132 4:1392416 5:1386104 6:303709 7:370821 8:283784 9:303689 10:254378 11:303600 12:316436 13:384389 14:319783 15:303529 16:444372 17:275527 18:384133 19:280853 20:399511 21:273241 22:16553066 23:50.536803 24:1.6987493e+09 
1 1:1917 2:537 3:395 4:509 5:476 6:143 7:94 8:108 9:135 10:69 11:60 12:97 13:157 14:152 15:110 16:145 17:89 18:116 19:119 20:142 21:87 22:5804 23:51.382368 24:593582.56 
1 1:1131 2:276 3:232 4:345 5:278 6:65 7:44 8:75 9:64 10:32 11:44 12:51 13:86 14:78 15:79 16:104 17:75 18:73 19:46 20:100 21:49 22:3508 23:55.083996 24:351004.41 
1 1:900 2:225 3:247 4:233 5:195 6:52 7:67 8:49 9:38 10:46 11:60 12:44 13:76 14:61 15:48 16:73 17:44 18:47 19:51 20:57 21:34 22:2656 23:47.555556 24:278720.62 
1 1:5497896 2:1361352 3:1357974 4:1392428 5:1386142 6:303709 7:370787 8:283805 9:303691 10:254347 11:303542 12:316424 13:384366 14:319779 15:303519 16:444398 17:275527 18:384157 19:280832 20:399525 21:273257 22:16552932 23:50.538788 24:1.6987133e+09 
1 1:942 2:213 3:225 4:277 5:227 6:53 7:49 8:44 9:50 10:42 11:51 12:34 13:74 14:51 15:58 16:94 17:60 18:50 19:43 20:85 21:39 22:2892 23:53.503185 24:292008.77 
1 1:495 2:92 3:139 4:139 5:125 6:19 7:31 8:14 9:22 10:25 11:31 12:30 13:47 14:23 15:31 16:50 17:30 18:19 19:40 20:43 21:20 22:1518 23:53.333333 24:153023.21 
1 1:450 2:100 3:101 4:126 5:123 6:22 7:26 8:19 9:25 10:14 11:19 12:24 13:36 14:31 15:20 16:43 17:27 18:25 19:28 20:39 21:29 22:1398 23:55.333333 24:139111.48 
1 1:915 2:187 3:219 4:249 5:260 6:41 7:52 8:27 9:54 10:35 11:39 12:46 13:88 14:47 15:54 16:88 17:51 18:51 19:63 20:74 21:59 22:2848 23:55.628415 24:282365.48 
1 1:1149 2:281 3:254 4:299 5:315 6:67 7:69 8:55 9:67 10:42 11:56 12:73 13:76 14:76 15:59 16:92 17:66 18:74 19:62 20:96 21:71 22:3526 23:53.437772 24:354818.95 
1 1:5498361 2:1361464 3:1358156 4:1392523 5:1386218 6:303734 7:370824 8:283825 9:303711 10:254381 11:303601 12:316443 13:384408 14:319802 15:303554 16:444418 17:275543 18:384177 19:280854 20:399541 21:273273 22:16554204 23:50.537624 24:1.698857e+09 
1 1:396 2:119 3:95 4:107 5:75 6:32 7:32 8:28 9:16 10:24 11:18 12:21 13:30 14:34 15:26 16:25 17:18 18:18 19:17 20:27 21:11 22:1156 23:45.959596 24:123101.61 
1 1:5497437 2:1361270 3:1357963 4:1392289 5:1385915 6:303704 7:370789 8:283774 9:303649 10:254352 11:303564 12:316373 13:384360 14:319770 15:303490 16:444331 17:275497 18:384090 19:280806 20:399457 21:273206 22:16551282 23:50.53635 24:1.6985729e+09 
1 1:942 2:226 3:189 4:271 5:256 6:49 7:52 8:45 9:58 10:30 11:33 12:51 13:68 14:54 15:50 16:99 17:64 18:71 19:47 20:90 21:43 22:2938 23:55.944798 24:291540.54 
1 1:288 2:61 3:63 4:95 5:69 6:13 7:15 8:14 9:13 10:6 11:10 12:15 13:31 14:20 15:22 16:27 17:22 18:16 19:15 20:24 21:11 22:904 23:56.944444 24:89515.89 
1 1:531 2:114 3:126 4:148 5:143 6:21 7:39 8:19 9:27 10:19 11:22 12:34 13:41 14:30 15:18 16:57 17:36 18:35 19:37 20:46 21:21 22:1644 23:54.80226 24:164127.37 
1 1:1863 2:363 3:460 4:600 5:440 6:77 7:119 8:71 9:69 10:51 11:88 12:89 13:196 14:126 15:109 16:200 17:142 18:82 19:108 20:168 21:68 22:5806 23:55.82394 24:578404.38 
1 1:591 2:149 3:138 4:159 5:145 6:32 7:44 8:26 9:34 10:28 11:28 12:37 13:35 14:41 15:35 16:43 17:34 18:36 19:21 20:57 21:29 22:1790 23:51.43824 24:182939.54 
1 1:234 2:66 3:54 4:58 5:56 6:17 7:13 8:12 9:17 10:10 11:10 12:11 13:22 14:17 15:15 16:19 17:6 18:14 19:15 20:18 21:8 22:696 23:48.717949 24:72404.2 
1 1:315 2:83 3:88 4:71 5:73 6:17 7:27 8:14 9:21 10:22 11:28 12:10 13:20 14:21 15:15 16:24 17:9 18:19 19:10 20:26 21:15 22:918 23:45.714286 24:97267.05 
1 1:5497731 2:1361336 3:1358051 4:1392344 5:1386000 6:303719 7:370803 8:283774 9:303680 10:254365 11:303585 12:316397 13:384384 14:319777 15:303518 16:444342 17:275509 18:384115 19:280825 20:399479 21:273223 22:16552150 23:50.536194 24:1.698663e+09 
1 1:5497590 2:1361299 3:1358028 4:1392286 5:1385977 6:303698 7:370796 8:283777 9:303670 10:254363 11:303580 12:316397 13:384364 14:319771 15:303497 16:444327 17:275499 18:384109 19:280831 20:399454 21:273225 22:16551706 23:50.536017 24:1.6986187e+09 
1 1:816 2:188 3:197 4:250 5:181 6:43 7:54 8:50 9:25 10:28 11:44 12:29 13:79 14:51 15:51 16:83 17:54 18:50 19:31 20:56 21:36 22:2494 23:52.818627 24:253470.28 
1 1:5497920 2:1361382 3:1358076 4:1392409 5:1386053 6:303722 7:370806 8:283813 9:303677 10:254372 11:303592 12:316409 13:384381 14:319790 15:303531 16:444366 17:275521 18:384134 19:280825 20:399493 21:273235 22:16552764 23:50.536603 24:1.6987218e+09 
1 1:879 2:195 3:219 4:243 5:222 6:42 7:62 8:45 9:35 10:34 11:48 12:58 13:58 14:53 15:47 16:78 17:49 18:55 19:41 20:75 21:45 22:2688 23:52.901024 24:271906.99 
1 1:765 2:126 3:223 4:248 5:168 6:25 7:48 8:23 9:22 10:25 11:53 12:40 13:87 14:33 15:62 16:73 17:70 18:34 19:42 20:59 21:28 22:2362 23:54.379085 24:237542.72 
1 1:570 2:177 3:147 4:137 5:109 6:44 7:45 8:40 9:32 10:38 11:31 12:28 13:39 14:50 15:24 16:28 17:29 18:29 19:36 20:23 21:18 22:1632 23:43.157895 24:176793.99 
1 1:5497179 2:1361248 3:1357892 4:1392184 5:1385855 6:303697 7:370778 8:283771 9:303648 10:254353 11:303531 12:316372 13:384335 14:319752 15:303476 16:444295 17:275467 18:384092 19:280806 20:399417 21:273183 22:16550436 23:50.53572 24:1.6984925e+09 
0.20713010036031373 1:5497488 2:1361285 3:1357983 4:1392272 5:1385948 6:303701 7:370775 8:283784 9:303666 10:254359 11:303568 12:316388 13:384350 14:319770 15:303504 16:444309 17:275489 18:384096 19:280818 20:399449 21:273221 22:16551416 23:50.536172 24:1.6985876e+09 
1 1:5498493 2:1361500 3:1358215 4:1392540 5:1386238 6:303743 7:370846 8:283824 9:303717 10:254392 11:303621 12:316453 13:384415 14:319809 15:303554 16:444419 17:275551 18:384186 19:280860 20:399543 21:273275 22:16554542 23:50.537084 24:1.6988976e+09 
1 1:945 2:251 3:261 4:226 5:207 6:58 7:71 8:58 9:47 10:51 11:63 12:52 13:74 14:52 15:64 16:71 17:35 18:73 19:42 20:55 21:32 22:2756 23:45.820106 24:292288.44 
1 1:1725 2:394 3:421 4:501 5:409 6:80 7:117 8:79 9:87 10:71 11:84 12:107 13:136 14:106 15:111 16:133 17:126 18:106 19:86 20:135 21:73 22:5270 23:52.753623 24:534694.23 
1 1:492 2:125 3:124 4:137 5:106 6:28 7:41 8:24 9:19 10:22 11:32 12:24 13:40 14:36 15:29 16:43 17:23 18:26 19:16 20:44 21:17 22:1470 23:49.390244 24:152643.26 
1 1:1005 2:218 3:236 4:283 5:268 6:51 7:49 8:45 9:57 10:34 11:46 12:51 13:92 14:63 15:63 16:101 17:50 18:55 19:65 20:89 21:50 22:3112 23:54.825871 24:310752.62 
1 1:459 2:115 3:104 4:129 5:111 6:25 7:28 8:30 9:24 10:16 11:21 12:24 13:40 14:32 15:27 16:40 17:24 18:34 19:25 20:29 21:18 22:1398 23:52.287582 24:142239.6 
1 1:366 2:100 3:81 4:101 5:84 6:23 7:26 8:23 9:19 10:12 11:16 12:14 13:33 14:31 15:16 16:34 17:17 18:25 19:17 20:25 21:16 22:1102 23:50.546448 24:113519.38 
1 1:1488 2:324 3:326 4:473 5:365 6:68 7:84 8:68 9:82 10:49 11:53 12:66 13:142 14:103 15:87 16:156 17:108 18:83 19:86 20:135 21:56 22:4652 23:56.317204 24:461929.65 
1 1:1359 2:312 3:303 4:390 5:354 6:80 7:65 8:61 9:83 10:53 11:65 12:54 13:116 14:74 15:76 16:143 17:82 18:81 19:82 20:117 21:66 22:4206 23:54.746137 24:420669.64 
1 1:1083 2:192 3:316 4:317 5:258 6:34 7:64 8:26 9:55 10:50 11:70 12:64 13:110 14:44 15:89 16:89 17:79 18:51 19:71 20:86 21:46 22:3316 23:53.093259 24:335245.89 
1 1:1317 2:293 3:297 4:401 5:326 6:68 7:74 8:56 9:72 10:49 11:55 12:53 13:125 14:85 15:79 16:137 17:85 18:68 19:74 20:120 21:57 22:4088 23:55.201215 24:408417.73 
1 1:1068 2:235 3:235 4:341 5:257 6:58 7:60 8:50 9:46 10:41 11:43 12:44 13:98 14:53 15:77 16:110 17:85 18:62 19:46 20:92 21:50 22:3332 23:55.992509 24:331685.88 
1 1:1476 2:336 3:334 4:431 5:375 6:76 7:92 8:66 9:81 10:51 11:73 12:69 13:120 14:100 15:90 16:134 17:91 18:88 19:58 20:138 21:78 22:4564 23:54.607046 24:457186.85 
1 1:921 2:224 3:221 4:282 5:194 6:49 7:52 8:66 9:41 10:44 11:46 12:41 13:77 14:69 15:62 16:77 17:61 18:46 19:48 20:65 21:32 22:2794 23:51.682953 24:286340.3 
1 1:831 2:209 3:177 4:250 5:195 6:50 7:52 8:53 9:42 10:27 11:34 12:37 13:70 14:64 15:40 16:81 17:56 18:56 19:42 20:62 21:32 22:2552 23:53.54994 24:258012.3 
1 1:2706 2:718 3:576 4:747 5:665 6:181 7:153 8:150 9:165 10:106 11:88 12:146 13:218 14:203 15:170 16:218 17:140 18:159 19:147 20:223 21:123 22:8236 23:52.18034 24:838338.27 
1 1:399 2:115 3:91 4:117 5:76 6:37 7:28 8:21 9:16 10:20 11:18 12:16 13:31 14:28 15:25 16:28 17:30 18:17 19:14 20:29 21:12 22:1184 23:48.370927 24:124213.25 
1 1:552 2:113 3:141 4:157 5:141 6:16 7:45 8:19 9:28 10:21 11:32 12:29 13:49 14:36 15:28 16:52 17:34 18:35 19:26 20:48 21:26 22:1700 23:53.985507 24:170761.55 
1 1:765 2:182 3:159 4:205 5:219 6:46 7:39 8:48 9:38 10:20 11:29 12:52 13:51 14:57 15:37 16:75 17:32 18:47 19:47 20:71 21:46 22:2378 23:55.424837 24:236206.34 
1 1:1425 2:373 3:304 4:398 5:350 6:96 7:64 8:79 9:93 10:54 11:54 12:78 13:109 14:104 15:99 16:103 17:79 18:78 19:78 20:118 21:66 22:4346 23:52.491228 24:441556.35 
1 1:2598 2:589 3:562 4:744 5:703 6:141 7:127 8:113 9:156 10:83 11:88 12:139 13:235 14:183 15:165 16:226 17:149 18:131 19:165 20:225 21:154 22:8090 23:55.69669 24:803677.22 
1 1:363 2:96 3:78 4:122 5:67 6:25 7:23 8:25 9:16 10:15 11:14 12:11 13:34 14:33 15:21 16:32 17:31 18:16 19:16 20:27 21:8 22:1104 23:52.066116 24:113351.21 
1 1:5498271 2:1361448 3:1358159 4:1392482 5:1386182 6:303729 7:370838 8:283811 9:303705 10:254386 11:303603 12:316440 13:384402 14:319797 15:303544 16:444399 17:275538 18:384171 19:280846 20:399527 21:273266 22:16553870 23:50.537051 24:1.698829e+09 
1 1:771 2:129 3:249 4:211 5:182 6:22 7:49 8:17 9:36 10:33 11:58 12:51 13:82 14:26 15:70 16:58 17:48 18:43 19:47 20:55 21:33 22:2328 23:50.972763 24:238259.29 
1 1:441 2:108 3:116 4:120 5:97 6:24 7:31 8:23 9:21 10:22 11:26 12:22 13:40 14:29 15:32 16:32 17:21 18:24 19:21 20:30 21:21 22:1316 23:49.206349 24:136686.07 
1 1:1230 2:313 3:311 4:320 5:286 6:72 7:91 8:55 9:69 10:66 11:67 12:56 13:95 14:78 15:69 16:95 17:64 18:71 19:57 20:92 21:57 22:3672 23:49.268293 24:380707.62 
1 1:5498199 2:1361437 3:1358143 4:1392461 5:1386158 6:303725 7:370826 8:283814 9:303704 10:254388 11:303603 12:316429 13:384394 14:319795 15:303538 16:444391 17:275532 18:384161 19:280847 20:399516 21:273261 22:16553636 23:50.536894 24:1.6988068e+09 
1 1:5498031 2:1361399 3:1358083 4:1392431 5:1386118 6:303721 7:370821 8:283800 9:303695 10:254364 11:303585 12:316422 13:384386 14:319798 15:303519 16:444387 17:275522 18:384154 19:280832 20:399518 21:273245 22:16553160 23:50.537165 24:1.6987552e+09 
1 1:5497854 2:1361360 3:1358026 4:1392384 5:1386084 6:303710 7:370814 8:283800 9:303677 10:254364 11:303565 12:316419 13:384368 14:319784 15:303513 16:444374 17:275513 18:384143 19:280824 20:399503 21:273244 22:16552644 23:50.537319 24:1.6987004e+09 
1 1:5498049 2:1361397 3:1358129 4:1392406 5:1386117 6:303717 7:370827 8:283800 9:303693 10:254380 11:303603 12:316430 13:384385 14:319785 15:303526 16:444372 17:275522 18:384155 19:280842 20:399498 21:273251 22:16553144 23:50.536527 24:1.6987601e+09 
1 1:2430 2:538 3:513 4:760 5:619 6:126 7:132 8:110 9:125 10:84 11:107 12:93 13:206 14:158 15:132 16:278 17:161 18:126 19:119 20:251 21:107 22:7618 23:56.748971 24:753774.24 
1 1:2535 2:591 3:552 4:762 5:630 6:130 7:140 8:153 9:128 10:90 11:97 12:135 13:202 14:176 15:160 16:239 17:163 18:155 19:127 20:220 21:116 22:7854 23:54.911243 24:786077.13 
1 1:798 2:149 3:196 4:245 5:208 6:29 7:46 8:31 9:29 10:23 11:41 12:45 13:77 14:44 15:48 16:88 17:56 18:39 19:51 20:72 21:38 22:2502 23:56.766917 24:247112.91 
1 1:891 2:191 3:214 4:252 5:234 6:39 7:54 8:31 9:50 10:36 11:42 12:46 13:76 14:50 15:51 16:91 17:55 18:49 19:53 20:85 21:41 22:2754 23:54.545455 24:275566.23 
1 1:1983 2:279 3:512 4:694 5:498 6:43 7:100 8:47 9:79 10:57 11:107 12:82 13:233 14:103 15:137 16:248 17:168 18:67 19:135 20:207 21:78 22:6350 23:60.110943 24:615630.98 
1 1:345 2:86 3:83 4:95 5:81 6:20 7:21 8:18 9:20 10:15 11:17 12:18 13:28 14:28 15:23 16:23 17:20 18:16 19:17 20:28 21:18 22:1042 23:51.014493 24:106900.1 
1 1:5497956 2:1361352 3:1358118 4:1392418 5:1386068 6:303707 7:370806 8:283802 9:303675 10:254367 11:303603 12:316428 13:384392 14:319788 15:303532 16:444371 17:275525 18:384128 19:280849 20:399497 21:273227 22:16552884 23:50.536709 24:1.6987324e+09 
1 1:1518 2:395 3:398 4:383 5:342 6:89 7:121 8:78 9:71 10:84 11:94 12:81 13:106 14:105 15:72 16:116 17:74 18:81 19:78 20:109 21:65 22:4486 23:47.760211 24:469789.51 
1 1:726 2:187 3:166 4:189 5:184 6:53 7:28 8:35 9:52 10:22 11:30 12:48 13:61 14:52 15:45 16:51 17:35 18:41 19:58 20:52 21:28 22:2198 23:51.37741 24:224513.07 
1 1:852 2:247 3:181 4:239 5:185 6:74 7:39 8:63 9:42 10:24 11:39 12:41 13:74 14:64 15:50 16:82 17:41 18:56 19:50 20:59 21:19 22:2552 23:49.765258 24:264617.83 
1 1:558 2:162 3:112 4:154 5:130 6:46 7:30 8:36 9:32 10:17 11:18 12:31 13:45 14:51 15:38 16:46 17:17 18:31 19:25 20:53 21:17 22:1684 23:50.896057 24:173118.45 
1 1:759 2:198 3:184 4:212 5:165 6:53 7:45 8:46 9:37 10:39 11:36 12:30 13:63 14:50 15:44 16:66 17:40 18:39 19:43 20:51 21:29 22:2272 23:49.670619 24:235511.1 
1 1:828 2:150 3:254 4:239 5:185 6:29 7:54 8:27 9:33 10:46 11:62 12:49 13:79 14:29 15:62 16:73 17:63 18:40 19:58 20:57 21:26 22:2504 23:51.207729 24:256442.91 
1 1:486 2:143 3:100 4:130 5:113 6:37 7:23 8:36 9:26 10:16 11:19 12:23 13:38 14:29 15:27 16:49 17:23 18:41 19:27 20:30 21:15 22:1458 23:50 24:150700.18 
1 1:1026 2:252 3:231 4:292 5:251 6:56 7:78 8:44 9:60 10:41 11:46 12:52 13:86 14:65 15:64 16:92 17:63 18:76 19:37 20:91 21:39 22:3138 23:52.923977 24:317927.44 
1 1:456 2:106 3:119 4:126 5:105 6:30 7:20 8:24 9:21 10:16 11:28 12:27 13:38 14:31 15:29 16:35 17:26 18:19 19:31 20:33 21:17 22:1374 23:50.657895 24:141260.93 
1 1:789 2:181 3:186 4:223 5:199 6:41 7:59 8:26 9:42 10:30 11:38 12:50 13:60 14:50 15:52 16:68 17:46 18:48 19:29 20:83 21:36 22:2422 23:53.485425 24:244248.42 
1 1:1149 2:262 3:270 4:337 5:280 6:59 7:72 8:59 9:44 10:35 11:53 12:53 13:114 14:76 15:70 16:113 17:65 18:64 19:60 20:86 21:61 22:3532 23:53.698869 24:356123.57 
1 1:960 2:231 3:221 4:274 5:234 6:58 7:65 8:44 9:41 10:36 11:36 12:61 13:79 14:70 15:58 16:87 17:52 18:44 19:53 20:92 21:40 22:2936 23:52.916667 24:297466.37 
1 1:5498319 2:1361463 3:1358162 4:1392505 5:1386189 6:303739 7:370830 8:283819 9:303706 10:254387 11:303606 12:316436 13:384407 14:319803 15:303551 16:444407 17:275540 18:384165 19:280849 20:399535 21:273266 22:16554026 23:50.537155 24:1.6988442e+09 
1 1:5498379 2:1361481 3:1358180 4:1392523 5:1386195 6:303739 7:370840 8:283821 9:303711 10:254390 11:303610 12:316439 13:384414 14:319812 15:303551 16:444406 17:275548 18:384170 19:280853 20:399534 21:273266 22:16554194 23:50.53704 24:1.698863e+09 
1 1:459 2:103 3:105 4:138 5:113 6:22 7:29 8:25 9:18 10:16 11:15 12:17 13:48 14:34 15:24 16:52 17:24 18:21 19:28 20:38 21:22 22:1420 23:54.684096 24:142326.53 
1 1:411 2:109 3:78 4:116 5:108 6:24 7:29 8:29 9:18 10:11 11:17 12:19 13:27 14:28 15:17 16:45 17:21 18:37 19:11 20:34 21:19 22:1270 23:54.501217 24:127304.11 
1 1:5497548 2:1361284 3:1357981 4:1392301 5:1385982 6:303699 7:370792 8:283781 9:303654 10:254361 11:303566 12:316388 13:384346 14:319765 15:303493 16:444342 17:275504 18:384101 19:280810 20:399473 21:273230 22:16551662 23:50.536767 24:1.6986061e+09 
1 1:576 2:150 3:137 4:164 5:125 6:33 7:44 8:29 9:28 10:28 11:29 12:20 13:50 14:40 15:32 16:52 17:33 18:34 19:22 20:44 21:23 22:1730 23:50.173611 24:178810.95 
1 1:804 2:229 3:202 4:194 5:179 6:62 7:56 8:40 9:44 10:42 11:42 12:44 13:67 14:56 15:38 16:56 17:38 18:42 19:59 20:43 21:30 22:2354 23:46.393035 24:248818.82 
1 1:5497665 2:1361305 3:1357998 4:1392354 5:1386008 6:303695 7:370795 8:283792 9:303670 10:254352 11:303569 12:316389 13:384374 14:319772 15:303517 16:444352 17:275512 18:384133 19:280803 20:399475 21:273231 22:16552054 23:50.537128 24:1.6986428e+09 
1 1:780 2:172 3:200 4:210 5:198 6:35 7:47 8:37 9:46 10:42 11:47 12:43 13:56 14:43 15:56 16:63 17:43 18:45 19:38 20:69 21:37 22:2376 23:52.307692 24:241119.41 
1 1:771 2:203 3:190 4:201 5:177 6:38 7:65 8:47 9:43 10:43 11:33 12:33 13:71 14:53 15:47 16:62 17:34 18:59 19:35 20:44 21:34 22:2298 23:49.027237 24:238751.21 
-1 1:5498578 2:1361525 3:1358234 4:1392563 5:1386256 6:303748 7:370852 8:283832 9:303721 10:254399 11:303623 12:316457 13:384421 14:319817 15:303561 16:444426 17:275552 18:384189 19:280864 20:399551 21:273278 22:16554794 23:50.537048 24:1.698924e+09 
-1 1:928 2:225 3:245 4:224 5:234 6:53 7:71 8:47 9:36 10:40 11:57 12:73 13:59 14:49 15:43 16:83 17:42 18:65 19:58 20:69 21:39 22:2772 23:49.353448 24:286427.47 
-1 1:2275 2:624 3:487 4:564 5:600 6:152 7:157 8:138 9:113 10:97 11:102 12:122 13:139 14:139 15:97 16:207 17:104 18:173 19:103 20:166 21:136 22:6878 23:51.164835 24:702782.17 
-1 1:1142 2:256 3:314 4:284 5:288 6:51 7:75 8:65 9:44 10:46 11:80 12:74 13:80 14:54 15:66 16:108 17:49 18:85 19:59 20:83 21:54 22:3428 23:50.087566 24:352494.38 
-1 1:3460 2:993 3:1081 4:686 5:700 6:222 7:335 8:180 9:165 10:282 11:266 12:208 13:233 14:186 15:201 16:158 17:123 18:213 19:186 20:132 21:142 22:9692 23:40.057803 24:1068127.4 
-1 1:3145 2:863 3:1023 4:635 5:624 6:190 7:303 8:158 9:140 10:255 11:259 12:177 13:225 14:163 15:191 16:155 17:113 18:184 19:162 20:126 21:131 22:8808 23:40.031797 24:971000.06 
-1 1:2255 2:657 3:843 4:397 5:358 6:158 7:245 8:107 9:87 10:186 11:239 12:153 13:165 14:119 15:131 16:70 17:65 18:135 19:127 20:48 21:43 22:6020 23:33.481153 24:696451.38 
-1 1:597 2:132 3:186 4:143 5:136 6:23 7:38 8:37 9:26 10:30 11:52 12:32 13:51 14:34 15:37 16:50 17:21 18:37 19:37 20:33 21:25 22:1752 23:46.733668 24:184346.38 
-1 1:5498577 2:1361524 3:1358234 4:1392563 5:1386256 6:303748 7:370851 8:283832 9:303721 10:254399 11:303623 12:316457 13:384421 14:319816 15:303561 16:444426 17:275552 18:384189 19:280864 20:399551 21:273278 22:16554792 23:50.537057 24:1.6989237e+09 
-1 1:1380 2:312 3:315 4:333 5:420 6:71 7:90 8:57 9:75 10:44 11:65 12:103 13:78 14:59 15:68 16:129 17:65 18:120 19:67 20:121 21:92 22:4266 23:54.565217 24:424641.22 
-1 1:2446 2:576 3:614 4:586 5:670 6:126 7:176 8:125 9:111 10:95 11:148 12:181 13:128 14:122 15:121 16:210 17:113 18:196 19:106 20:200 21:143 22:7404 23:51.349141 24:753866.05 
-1 1:2843 2:652 3:725 4:721 5:745 6:133 7:202 8:144 9:141 10:119 11:168 12:191 13:169 14:151 15:163 16:227 17:150 18:218 19:113 20:228 21:165 22:8618 23:51.565248 24:877566.62 
-1 1:2487 2:548 3:614 4:636 5:689 6:99 7:154 8:124 9:140 10:108 11:137 12:163 13:148 14:118 15:150 16:208 17:138 18:193 19:114 20:204 21:151 22:7624 23:53.277041 24:767051.01 
-1 1:1992 2:560 3:496 4:474 5:462 6:128 7:156 8:127 9:120 10:111 11:118 12:101 13:120 14:129 15:109 16:125 17:96 18:164 19:66 20:116 21:95 22:5856 23:46.987952 24:615939.07 
-1 1:5498574 2:1361523 3:1358233 4:1392562 5:1386256 6:303748 7:370851 8:283832 9:303720 10:254398 11:303623 12:316457 13:384420 14:319816 15:303561 16:444426 17:275552 18:384189 19:280864 20:399551 21:273278 22:16554784 23:50.537067 24:1.6989227e+09 
-1 1:5498570 2:1361522 3:1358232 4:1392560 5:1386256 6:303748 7:370850 8:283831 9:303721 10:254398 11:303623 12:316457 13:384420 14:319816 15:303561 16:444425 17:275551 18:384188 19:280864 20:399551 21:273278 22:16554772 23:50.537067 24:1.6989215e+09 
-1 1:2608 2:609 3:675 4:678 5:646 6:110 7:172 8:151 9:148 10:152 11:150 12:159 13:182 14:140 15:209 16:175 17:139 18:179 19:113 20:191 21:133 22:7864 23:50.766871 24:806104.23 
-1 1:3576 2:771 3:842 4:942 5:1021 6:134 7:199 8:194 9:205 10:122 11:182 12:264 13:218 14:169 15:207 16:346 17:187 18:308 19:197 20:310 21:185 22:11078 23:54.893736 24:1102997.5 
-1 1:3120 2:675 3:728 4:855 5:862 6:127 7:185 8:171 9:150 10:118 11:158 12:193 13:195 14:170 15:185 16:300 17:170 18:219 19:136 20:289 21:186 22:9674 23:55.032051 24:963630.81 
-1 1:3212 2:683 3:702 4:908 5:919 6:123 7:172 8:182 9:168 10:92 11:153 12:200 13:204 14:159 15:191 16:334 17:192 18:272 19:132 20:298 21:193 22:10078 23:56.880448 24:992158.71 
-1 1:2038 2:458 3:449 4:575 5:556 6:95 7:114 8:116 9:98 10:68 11:100 12:113 13:132 14:100 15:111 16:217 17:126 18:160 19:88 20:180 21:111 22:6338 23:55.495584 24:630127.81 
-1 1:784 2:172 3:164 4:204 5:244 6:37 7:40 8:37 9:48 10:30 11:32 12:54 13:43 14:35 15:46 16:84 17:36 18:61 19:41 20:84 21:48 22:2464 23:57.142857 24:241495.58 
-1 1:2568 2:616 3:497 4:702 5:753 6:127 7:115 8:188 9:148 10:83 11:119 12:121 13:128 14:129 15:118 16:291 17:136 18:240 19:99 20:222 21:173 22:8046 23:56.658879 24:792993.68 
-1 1:1886 2:437 3:437 4:512 5:500 6:88 7:117 8:123 9:82 10:68 11:94 12:106 13:139 14:122 15:99 16:182 17:93 18:133 19:97 20:141 21:108 22:5796 23:53.658537 24:582966.01 
-1 1:2590 2:590 3:622 4:695 5:683 6:121 7:152 8:164 9:118 10:88 11:142 12:155 13:190 14:149 15:150 16:243 17:130 18:198 19:130 20:188 21:139 22:7936 23:53.204633 24:800327.29 
-1 1:2015 2:423 3:489 4:533 5:570 6:89 7:105 8:96 9:100 10:64 11:124 12:129 13:126 14:87 15:122 16:191 17:115 18:151 19:91 20:178 21:128 22:6236 23:54.739454 24:621555.21 
-1 1:2493 2:518 3:595 4:671 5:709 6:98 7:151 8:109 9:128 10:86 11:146 12:154 13:158 14:113 15:142 16:248 17:148 18:190 19:104 20:236 21:152 22:7746 23:55.354994 24:769180.99 
-1 1:2661 2:570 3:657 4:705 5:729 6:109 7:176 8:112 9:147 10:103 11:151 12:167 13:184 14:133 15:151 16:251 17:155 18:200 19:126 20:239 21:144 22:8190 23:53.889515 24:821304.34 
-1 1:1749 2:368 3:455 4:465 5:461 6:71 7:107 8:74 9:98 10:72 11:108 12:106 13:128 14:96 15:107 16:152 17:99 18:112 19:92 20:153 21:93 22:5350 23:52.94454 24:540079.47 
-1 1:5498574 2:1361523 3:1358233 4:1392562 5:1386256 6:303748 7:370850 8:283832 9:303721 10:254399 11:303623 12:316457 13:384420 14:319816 15:303561 16:444426 17:275552 18:384188 19:280864 20:399551 21:273278 22:16554784 23:50.537067 24:1.6989227e+09 
-1 1:5498574 2:1361523 3:1358233 4:1392562 5:1386256 6:303748 7:370850 8:283832 9:303721 10:254399 11:303623 12:316457 13:384420 14:319816 15:303561 16:444426 17:275552 18:384188 19:280864 20:399551 21:273278 22:16554784 23:50.537067 24:1.6989227e+09 
-1 1:5498571 2:1361523 3:1358231 4:1392561 5:1386256 6:303748 7:370851 8:283831 9:303721 10:254398 11:303622 12:316457 13:384420 14:319817 15:303559 16:444426 17:275552 18:384188 19:280864 20:399551 21:273278 22:16554776 23:50.537076 24:1.6989218e+09 
-1 1:5498577 2:1361524 3:1358234 4:1392563 5:1386256 6:303748 7:370851 8:283832 9:303721 10:254399 11:303623 12:316457 13:384421 14:319816 15:303561 16:444426 17:275552 18:384189 19:280864 20:399551 21:273278 22:16554792 23:50.537057 24:1.6989237e+09 
-1 1:5498574 2:1361523 3:1358233 4:1392562 5:1386256 6:303748 7:370851 8:283831 9:303721 10:254399 11:303623 12:316457 13:384420 14:319815 15:303561 16:444426 17:275552 18:384189 19:280864 20:399551 21:273278 22:16554784 23:50.537067 24:1.6989227e+09 
-1 1:5498570 2:1361522 3:1358232 4:1392561 5:1386255 6:303748 7:370850 8:283832 9:303720 10:254399 11:303623 12:316457 13:384419 14:319815 15:303561 16:444426 17:275552 18:384188 19:280863 20:399551 21:273278 22:16554772 23:50.537067 24:1.6989215e+09 
-1 1:5498574 2:1361523 3:1358233 4:1392562 5:1386256 6:303747 7:370850 8:283832 9:303721 10:254399 11:303623 12:316457 13:384420 14:319816 15:303561 16:444426 17:275552 18:384189 19:280864 20:399551 21:273278 22:16554784 23:50.537067 24:1.6989227e+09 
-1 1:2576 2:593 3:611 4:674 5:698 6:121 7:167 8:147 9:123 10:115 11:128 12:143 13:192 14:120 15:155 16:247 17:123 18:203 19:127 20:183 21:155 22:7896 23:53.26087 24:795345.19 
-1 1:1834 2:412 3:431 4:502 5:489 6:88 7:108 8:93 9:99 10:78 11:91 12:92 13:143 14:80 15:120 16:177 17:105 18:143 19:84 20:141 21:103 22:5650 23:54.034896 24:566837.62 
-1 1:980 2:222 3:244 4:257 5:257 6:45 7:56 8:59 9:48 10:43 11:63 12:63 13:60 14:51 15:63 16:87 17:43 18:69 19:46 20:82 21:54 22:2988 23:52.44898 24:302698.64 
-1 1:5498574 2:1361523 3:1358233 4:1392562 5:1386256 6:303748 7:370851 8:283832 9:303720 10:254399 11:303623 12:316457 13:384420 14:319816 15:303561 16:444426 17:275552 18:384188 19:280864 20:399551 21:273278 22:16554784 23:50.537067 24:1.6989227e+09 
-1 1:1412 2:381 3:288 4:343 5:400 6:72 7:85 8:101 9:102 10:78 11:60 12:59 13:75 14:81 15:66 16:121 17:66 18:129 19:61 20:92 21:97 22:4310 23:52.620397 24:435547.68 
-1 1:1923 2:370 3:522 4:556 5:475 6:60 7:106 8:86 9:94 10:74 11:121 12:106 13:188 14:100 15:147 16:179 17:106 18:113 19:114 20:152 21:83 22:5908 23:53.614145 24:595093.11 
-1 1:2207 2:452 3:595 4:626 5:534 6:78 7:128 8:106 9:111 10:89 11:137 12:125 13:209 14:127 15:163 16:191 17:118 18:129 19:131 20:166 21:91 22:6734 23:52.560036 24:683088.28 
-1 1:831 2:210 3:231 4:207 5:183 6:44 7:67 8:48 9:36 10:53 11:53 12:62 13:44 14:44 15:54 16:53 17:48 18:54 19:38 20:59 21:29 22:2442 23:46.931408 24:257125.9 
-1 1:2591 2:595 3:576 4:692 5:728 6:105 7:156 8:147 9:152 10:98 11:133 12:152 13:154 14:139 15:151 16:228 17:156 18:218 19:97 20:217 21:162 22:8022 23:54.805095 24:799926 
-1 1:702 2:161 3:187 4:185 5:169 6:35 7:42 8:41 9:35 10:26 11:46 12:39 13:60 14:35 15:59 16:52 17:36 18:58 19:24 20:44 21:36 22:2112 23:50.42735 24:217103.21 
-1 1:5498574 2:1361523 3:1358233 4:1392562 5:1386256 6:303748 7:370850 8:283832 9:303721 10:254399 11:303623 12:316457 13:384420 14:319816 15:303561 16:444426 17:275552 18:384188 19:280864 20:399551 21:273278 22:16554784 23:50.537067 24:1.6989227e+09 
-1 1:1656 2:368 3:390 4:428 5:470 6:79 7:89 8:88 9:94 10:62 11:98 12:103 13:90 14:72 15:92 16:160 17:89 18:138 19:73 20:146 21:98 22:5108 23:54.227053 24:510728.93 
-0.01807376111046834 1:2037 2:517 3:543 4:468 5:509 6:116 7:132 8:109 9:126 10:120 11:133 12:111 13:131 14:89 15:126 16:148 17:91 18:159 19:103 20:123 21:106 22:6028 23:47.96269 24:628384.58 
-1 1:3161 2:777 3:839 4:774 5:771 6:167 7:194 8:166 9:196 10:193 11:202 12:172 13:212 14:155 15:231 16:206 17:161 18:209 19:151 20:214 21:166 22:9412 23:48.876938 24:976362.1 
-1 1:3366 2:822 3:906 4:829 5:809 6:181 7:201 8:167 9:214 10:193 11:226 12:176 13:233 14:170 15:240 16:221 17:172 18:220 19:160 20:231 21:168 22:10008 23:48.663102 24:1039932.6 
-1 1:1407 2:352 3:394 4:323 5:338 6:78 7:78 8:78 9:95 10:85 11:103 12:74 13:95 14:59 15:95 16:98 17:60 18:108 19:80 20:79 21:65 22:4136 23:46.979389 24:434195.78 
-1 1:1875 2:411 3:444 4:518 5:502 6:81 7:99 8:99 9:109 10:83 11:98 12:124 13:108 14:87 15:125 16:169 17:109 18:138 19:90 20:174 21:88 22:5790 23:54.4 24:579505.59 
-1 1:2382 2:542 3:537 4:657 5:646 6:113 7:129 8:129 9:135 10:93 11:112 12:145 13:149 14:122 15:145 16:230 17:131 18:179 19:113 20:219 21:120 22:7370 23:54.701931 24:736227.41 
-1 1:1417 2:317 3:344 4:377 5:379 6:68 7:87 8:76 9:67 10:48 11:78 12:86 13:105 14:85 15:73 16:139 17:67 18:98 19:79 20:116 21:75 22:4346 23:53.352152 24:437657.46 
-1 1:1336 2:305 3:370 4:315 5:346 6:67 7:84 8:65 9:67 10:66 11:95 12:97 13:83 14:70 15:76 16:107 17:47 18:81 19:85 20:105 21:63 22:3994 23:49.476048 24:411854.24 
-1 1:1248 2:297 3:301 4:330 5:320 6:75 7:68 8:68 9:60 10:55 11:66 12:76 13:85 14:67 15:85 16:112 17:53 18:75 19:62 20:111 21:62 22:3796 23:52.083333 24:385778.62 
-1 1:5498577 2:1361524 3:1358234 4:1392563 5:1386256 6:303748 7:370851 8:283832 9:303721 10:254399 11:303623 12:316457 13:384421 14:319816 15:303561 16:444426 17:275552 18:384189 19:280864 20:399551 21:273278 22:16554792 23:50.537057 24:1.6989237e+09 
-1 1:5498574 2:1361524 3:1358233 4:1392561 5:1386256 6:303748 7:370852 8:283831 9:303721 10:254399 11:303623 12:316457 13:384420 14:319816 15:303560 16:444426 17:275552 18:384189 19:280864 20:399550 21:273278 22:16554782 23:50.537048 24:1.6989227e+09 
-1 1:1504 2:372 3:337 4:373 5:422 6:72 7:97 8:79 9:95 10:63 11:79 12:92 13:83 14:75 15:78 16:134 17:77 18:133 19:63 20:126 21:89 22:4598 23:52.859043 24:463872.46 
-1 1:781 2:188 3:182 4:202 5:209 6:35 7:46 8:53 9:49 10:30 11:45 12:44 13:46 14:51 15:42 16:69 17:35 18:67 19:31 20:63 21:42 22:2384 23:52.62484 24:241202.59 
-1 1:3526 2:819 3:840 4:935 5:932 6:171 7:212 8:179 9:202 10:142 11:186 12:220 13:234 14:190 15:214 16:320 17:180 18:262 19:169 20:311 21:165 22:10786 23:52.949518 24:1089381.4 
-1 1:3527 2:816 3:867 4:931 5:913 6:160 7:237 8:184 9:181 10:146 11:199 12:228 13:234 14:193 15:212 16:319 17:178 18:264 19:159 20:306 21:162 22:10742 23:52.282393 24:1089843.7 
-1 1:5498577 2:1361524 3:1358234 4:1392563 5:1386256 6:303747 7:370851 8:283832 9:303721 10:254399 11:303623 12:316457 13:384421 14:319817 15:303561 16:444426 17:275552 18:384189 19:280864 20:399551 21:273278 22:16554792 23:50.537057 24:1.6989237e+09 
-1 1:5498574 2:1361523 3:1358233 4:1392562 5:1386256 6:303747 7:370850 8:283832 9:303721 10:254399 11:303623 12:316457 13:384420 14:319816 15:303561 16:444426 17:275552 18:384189 19:280864 20:399551 21:273278 22:16554784 23:50.537067 24:1.6989227e+09 
-1 1:2594 2:602 3:628 4:661 5:703 6:115 7:149 8:153 9:154 10:104 11:151 12:177 13:145 14:154 15:138 16:218 17:134 18:199 19:139 20:212 21:129 22:7916 23:52.582884 24:800501.56 
-1 1:2535 2:580 3:584 4:670 5:701 6:112 7:128 8:158 9:153 10:100 11:138 12:171 13:128 14:147 15:139 16:228 17:138 18:193 19:132 20:228 21:132 22:7812 23:54.08284 24:782611.01 
-1 1:1107 2:255 3:250 4:308 5:294 6:53 7:55 8:64 9:64 10:49 11:59 12:58 13:60 14:66 15:44 16:117 17:70 18:69 19:67 20:103 21:53 22:3418 23:54.38121 24:342348.84 
-1 1:1507 2:387 3:370 4:347 5:403 6:91 7:89 8:78 9:110 10:64 11:95 12:87 13:86 14:80 15:80 16:111 17:66 18:134 19:67 20:107 21:85 22:4514 23:49.76775 24:464555.13 
-1 1:5757 2:1530 3:1242 4:1705 5:1280 6:387 7:277 8:426 9:323 10:280 11:226 12:266 13:417 14:446 15:385 16:373 17:392 18:300 19:301 20:361 21:259 22:17484 23:51.849922 24:1788480.7 
-1 1:1405 2:298 3:379 4:340 5:388 6:56 7:78 8:72 9:75 10:58 11:93 12:91 13:103 14:59 15:88 16:139 17:49 18:108 19:86 20:111 21:71 22:4266 23:51.814947 24:432775.32 
-1 1:480 2:149 3:194 4:78 5:59 6:36 7:67 8:22 9:9 10:62 11:48 12:31 13:34 14:16 15:37 16:14 17:10 18:21 19:22 20:11 21:5 22:1234 23:28.541667 24:148439.05 
-1 1:1853 2:414 3:530 4:444 5:465 6:83 7:125 8:96 9:81 10:88 11:124 12:125 13:148 14:81 15:118 16:148 17:77 18:134 19:117 20:103 21:95 22:5524 23:49.055586 24:571544.86 
-1 1:4853 2:981 3:1158 4:1341 5:1373 6:165 7:233 8:305 9:227 10:181 11:237 12:323 13:340 14:200 15:344 16:474 17:269 18:385 19:267 20:373 21:293 22:15134 23:55.924171 24:1498041 
-1 1:5729 2:1161 3:1273 4:1645 5:1650 6:198 7:266 8:369 9:268 10:188 11:240 12:361 13:398 14:249 15:400 16:586 17:341 18:467 19:281 20:468 21:363 22:18048 23:57.5144 24:1769582.4 
-1 1:3510 2:642 3:737 4:1034 5:1097 6:100 7:151 8:200 9:172 10:80 11:137 12:253 13:213 14:151 15:214 16:389 17:235 18:293 19:180 20:341 21:244 22:11282 23:60.712251 24:1082918.3 
-1 1:2096 2:473 3:477 4:585 5:561 6:84 7:129 8:127 9:95 10:71 11:93 12:140 13:146 14:121 15:126 16:186 17:127 18:160 19:101 20:160 21:113 22:6484 23:54.675573 24:648081.29 
-1 1:1857 2:385 3:462 4:514 5:496 6:58 7:123 8:99 9:80 10:65 11:100 12:136 13:127 14:91 15:114 16:159 17:126 18:147 19:90 20:138 21:100 22:5734 23:54.388799 24:573785.78 
-1 1:2386 2:509 3:544 4:668 5:665 6:93 7:143 8:140 9:103 10:78 11:106 12:150 13:170 14:139 15:131 16:220 17:149 18:170 19:124 20:180 21:154 22:7438 23:55.867561 24:737136.66 
-1 1:2895 2:693 3:637 4:807 5:758 6:145 7:170 8:192 9:138 10:106 11:135 12:171 13:179 14:173 15:159 16:240 17:193 18:222 19:126 20:201 21:173 22:8920 23:54.058722 24:895710.15 
-1 1:2266 2:549 3:511 4:623 5:583 6:118 7:145 8:143 9:102 10:86 11:110 12:143 13:141 14:129 15:126 16:183 17:153 18:176 19:99 20:154 21:131 22:6944 23:53.221536 24:701099.37 
-1 1:1894 2:444 3:471 4:484 5:495 6:94 7:121 8:103 9:92 10:73 11:106 12:121 13:136 14:107 15:99 16:152 17:109 18:137 19:110 20:119 21:106 22:5746 23:51.689546 24:584837.35 
-1 1:1665 2:396 3:418 4:429 5:422 6:81 7:104 8:92 9:88 10:63 11:91 12:103 13:127 14:100 15:92 16:133 17:90 18:122 19:96 20:106 21:85 22:5032 23:51.111111 24:514464.6 
-1 1:1196 2:337 3:378 4:250 5:231 6:85 7:119 8:53 9:48 10:89 11:102 12:69 13:83 14:60 15:66 16:66 17:49 18:72 19:55 20:56 21:44 22:3354 23:40.217391 24:369656.11 
-1 1:5498561 2:1361519 3:1358227 4:1392561 5:1386254 6:303747 7:370849 8:283831 9:303721 10:254397 11:303620 12:316456 13:384420 14:319815 15:303561 16:444425 17:275552 18:384188 19:280863 20:399551 21:273278 22:16554752 23:50.537131 24:1.6989188e+09 
-1 1:887 2:218 3:194 4:194 5:281 6:47 7:64 8:39 9:51 10:35 11:40 12:59 13:52 14:34 15:33 16:95 17:29 18:86 19:48 20:71 21:62 22:2724 23:53.551297 24:272436.54 
-1 1:2486 2:555 3:536 4:655 5:740 6:104 7:137 8:153 9:135 10:92 11:116 12:172 13:118 14:137 15:122 16:248 17:129 18:197 19:122 20:236 21:156 22:7762 23:56.11424 24:766519.57 
-1 1:2556 2:555 3:583 4:676 5:742 6:98 7:176 8:119 9:123 10:100 11:126 12:164 13:156 14:121 15:118 16:269 17:136 18:198 19:126 20:232 21:160 22:7948 23:55.477308 24:788308.34 
-1 1:5498546 2:1361516 3:1358229 4:1392553 5:1386248 6:303746 7:370852 8:283831 9:303717 10:254398 11:303623 12:316456 13:384418 14:319814 15:303560 16:444423 17:275549 18:384188 19:280860 20:399549 21:273277 22:16554694 23:50.537015 24:1.6989141e+09 
-1 1:1513 2:355 3:381 4:378 5:399 6:61 7:92 8:104 9:84 10:56 11:98 12:105 13:82 14:96 15:89 16:107 17:78 18:129 19:61 20:106 21:90 22:4580 23:51.354924 24:466927.3 
