svm_type c_svc
kernel_type rbf
gamma 0.25
nr_class 2
total_sv 396
rho -0.5124390857054455
label 1 -1
nr_sv 200 196
SV
0.4873046875 1:2463 2:554 3:608 4:691 5:610 6:136 7:165 8:101 9:107 10:95 11:125 12:140 13:217 14:159 15:143 16:220 17:150 18:119 19:144 20:204 21:119 22:7528 23:52.821762 24:762366.06 
0.4873046875 1:933 2:194 3:214 4:293 5:232 6:40 7:50 8:52 9:41 10:30 11:47 12:46 13:77 14:61 15:54 16:94 17:70 18:52 19:49 20:80 21:43 22:2916 23:56.270096 24:289424.93 
0.4873046875 1:1287 2:302 3:301 4:368 5:316 6:74 7:71 8:66 9:61 10:35 11:65 12:64 13:114 14:91 15:73 16:124 17:70 18:72 19:69 20:108 21:59 22:3942 23:53.146853 24:398697.75 
0.4873046875 1:297 2:77 3:60 4:77 5:83 6:16 7:23 8:10 9:20 10:13 11:8 12:21 13:17 14:14 15:15 16:25 17:22 18:27 19:13 20:26 21:13 22:914 23:53.872054 24:91737.45 
0.4873046875 1:5497803 2:1361337 3:1358027 4:1392377 5:1386062 6:303703 7:370795 8:283789 9:303693 10:254367 11:303574 12:316392 13:384374 14:319775 15:303523 16:444360 17:275518 18:384135 19:280815 20:399495 21:273246 22:16552484 23:50.53726 24:1.6986848e+09 
0.48828125 1:5497149 2:1361113 3:1357975 4:1392201 5:1385860 6:303646 7:370758 8:283744 9:303637 10:254338 11:303574 12:316403 13:384335 14:319728 15:303506 16:444288 17:275483 18:384073 19:280812 20:399443 21:273177 22:16550420 23:50.536396 24:1.6984825e+09 
0.48828125 1:954 2:253 3:208 4:255 5:238 6:62 7:51 8:52 9:61 10:40 11:33 12:58 13:73 14:68 15:54 16:74 17:51 18:56 19:66 20:71 21:42 22:2894 23:51.677149 24:295304.22 
0.48828125 1:588 2:137 3:134 4:174 5:143 6:28 7:32 8:35 9:34 10:24 11:26 12:24 13:51 14:45 15:38 16:53 17:34 18:32 19:29 20:50 21:26 22:1810 23:53.911565 24:182324.02 
0.48828125 1:5498013 2:1361361 3:1358132 4:1392416 5:1386104 6:303709 7:370821 8:283784 9:303689 10:254378 11:303600 12:316436 13:384389 14:319783 15:303529 16:444372 17:275527 18:384133 19:280853 20:399511 21:273241 22:16553066 23:50.536803 24:1.6987493e+09 
0.48828125 1:5497866 2:1361364 3:1358047 4:1392394 5:1386061 6:303715 7:370806 8:283791 9:303692 10:254373 11:303577 12:316407 13:384373 14:319787 15:303525 16:444355 17:275526 18:384129 19:280822 20:399503 21:273239 22:16552642 23:50.536972 24:1.6987047e+09 
0.48828125 1:5498175 2:1361432 3:1358122 4:1392454 5:1386167 6:303730 7:370824 8:283808 9:303706 10:254381 11:303594 12:316434 13:384392 14:319793 15:303533 16:444391 17:275531 18:384164 19:280850 20:399517 21:273263 22:16553592 23:50.537151 24:1.6987992e+09 
0.48828125 1:1917 2:537 3:395 4:509 5:476 6:143 7:94 8:108 9:135 10:69 11:60 12:97 13:157 14:152 15:110 16:145 17:89 18:116 19:119 20:142 21:87 22:5804 23:51.382368 24:593582.56 
0.48828125 1:1131 2:276 3:232 4:345 5:278 6:65 7:44 8:75 9:64 10:32 11:44 12:51 13:86 14:78 15:79 16:104 17:75 18:73 19:46 20:100 21:49 22:3508 23:55.083996 24:351004.41 
0.48828125 1:5498370 2:1361478 3:1358180 4:1392516 5:1386196 6:303741 7:370841 8:283820 9:303705 10:254390 11:303610 12:316437 13:384409 14:319805 15:303549 16:444413 17:275543 18:384171 19:280846 20:399538 21:273267 22:16554164 23:50.537014 24:1.69886e+09 
0.48828125 1:1167 2:217 3:351 4:334 5:265 6:35 7:86 8:37 9:46 10:56 11:81 12:75 13:118 14:60 15:73 16:100 17:82 18:54 19:90 20:77 21:40 22:3532 23:51.328192 24:361343.59 
0.48828125 1:900 2:225 3:247 4:233 5:195 6:52 7:67 8:49 9:38 10:46 11:60 12:44 13:76 14:61 15:48 16:73 17:44 18:47 19:51 20:57 21:34 22:2656 23:47.555556 24:278720.62 
0.48828125 1:5496129 2:1360836 3:1357479 4:1392065 5:1385749 6:303597 7:370614 8:283701 9:303611 10:254196 11:303446 12:316314 13:384253 14:319693 15:303413 16:444299 17:275464 18:384037 19:280736 20:399451 21:273169 22:16547886 23:50.541281 24:1.698168e+09 
0.48828125 1:5497896 2:1361352 3:1357974 4:1392428 5:1386142 6:303709 7:370787 8:283805 9:303691 10:254347 11:303542 12:316424 13:384366 14:319779 15:303519 16:444398 17:275527 18:384157 19:280832 20:399525 21:273257 22:16552932 23:50.538788 24:1.6987133e+09 
0.48828125 1:5498046 2:1361379 3:1358057 4:1392460 5:1386150 6:303713 7:370806 8:283807 9:303691 10:254364 11:303571 12:316417 13:384384 14:319790 15:303526 16:444406 17:275534 18:384150 19:280833 20:399531 21:273264 22:16553312 23:50.538137 24:1.6987599e+09 
0.48828125 1:5497158 2:1361102 3:1357696 4:1392320 5:1386040 6:303647 7:370687 8:283769 9:303670 10:254275 11:303479 12:316363 13:384313 14:319743 15:303483 16:444381 17:275514 18:384108 19:280781 20:399525 21:273253 22:16551036 23:50.541753 24:1.6984854e+09 
0.48828125 1:5498316 2:1361474 3:1358146 4:1392497 5:1386199 6:303743 7:370837 8:283812 9:303712 10:254385 11:303597 12:316444 13:384396 14:319801 15:303544 16:444399 17:275546 18:384174 19:280845 20:399536 21:273270 22:16554024 23:50.537219 24:1.6988431e+09 
0.48828125 1:942 2:213 3:225 4:277 5:227 6:53 7:49 8:44 9:50 10:42 11:51 12:34 13:74 14:51 15:58 16:94 17:60 18:50 19:43 20:85 21:39 22:2892 23:53.503185 24:292008.77 
0.48828125 1:2817 2:648 3:599 4:832 5:738 6:145 7:145 8:136 9:163 10:84 11:86 12:167 13:245 14:203 15:180 16:255 17:170 18:157 19:171 20:257 21:134 22:8774 23:55.733049 24:872503.03 
0.48828125 1:495 2:92 3:139 4:139 5:125 6:19 7:31 8:14 9:22 10:25 11:31 12:30 13:47 14:23 15:31 16:50 17:30 18:19 19:40 20:43 21:20 22:1518 23:53.333333 24:153023.21 
0.48828125 1:450 2:100 3:101 4:126 5:123 6:22 7:26 8:19 9:25 10:14 11:19 12:24 13:36 14:31 15:20 16:43 17:27 18:25 19:28 20:39 21:29 22:1398 23:55.333333 24:139111.48 
0.48828125 1:951 2:220 3:206 4:294 5:231 6:52 7:50 8:52 9:47 10:30 11:32 12:52 13:81 14:74 15:72 16:80 17:58 18:45 19:41 20:93 21:44 22:2952 23:55.205047 24:295174.77 
0.48828125 1:915 2:187 3:219 4:249 5:260 6:41 7:52 8:27 9:54 10:35 11:39 12:46 13:88 14:47 15:54 16:88 17:51 18:51 19:63 20:74 21:59 22:2848 23:55.628415 24:282365.48 
0.48828125 1:822 2:190 3:197 4:253 5:182 6:38 7:59 8:45 9:34 10:31 11:44 12:29 13:77 14:59 15:49 16:81 17:53 18:48 19:29 20:67 21:34 22:2514 23:52.919708 24:255373.49 
0.48828125 1:1149 2:281 3:254 4:299 5:315 6:67 7:69 8:55 9:67 10:42 11:56 12:73 13:76 14:76 15:59 16:92 17:66 18:74 19:62 20:96 21:71 22:3526 23:53.437772 24:354818.95 
0.48828125 1:3222 2:759 3:663 4:953 5:847 6:185 7:163 8:143 9:190 10:102 11:111 12:165 13:268 14:238 15:201 16:299 17:189 18:156 19:171 20:327 21:164 22:10044 23:55.865922 24:998092.05 
0.48828125 1:5498361 2:1361464 3:1358156 4:1392523 5:1386218 6:303734 7:370824 8:283825 9:303711 10:254381 11:303601 12:316443 13:384408 14:319802 15:303554 16:444418 17:275543 18:384177 19:280854 20:399541 21:273273 22:16554204 23:50.537624 24:1.698857e+09 
0.48828125 1:396 2:119 3:95 4:107 5:75 6:32 7:32 8:28 9:16 10:24 11:18 12:21 13:30 14:34 15:26 16:25 17:18 18:18 19:17 20:27 21:11 22:1156 23:45.959596 24:123101.61 
0.48828125 1:5497989 2:1361389 3:1358106 4:1392425 5:1386069 6:303718 7:370813 8:283812 9:303679 10:254381 11:303606 12:316412 13:384381 14:319792 15:303526 16:444378 17:275528 18:384131 19:280836 20:399503 21:273235 22:16552966 23:50.536551 24:1.698743e+09 
0.48828125 1:5497794 2:1361349 3:1358050 4:1392371 5:1386024 6:303707 7:370800 8:283795 9:303688 10:254373 11:303576 12:316398 13:384384 14:319783 15:303530 16:444345 17:275512 18:384127 19:280825 20:399479 21:273229 22:16552378 23:50.536542 24:1.6986826e+09 
0.48828125 1:5497026 2:1361148 3:1357846 4:1392190 5:1385842 6:303667 7:370735 8:283750 9:303646 10:254335 11:303536 12:316342 13:384337 14:319733 15:303476 16:444304 17:275482 18:384063 19:280803 20:399426 21:273189 22:16550116 23:50.536999 24:1.6984454e+09 
0.48828125 1:5497362 2:1361261 3:1357921 4:1392235 5:1385945 6:303697 7:370769 8:283773 9:303659 10:254347 11:303550 12:316385 13:384341 14:319752 15:303488 16:444329 17:275475 18:384102 19:280816 20:399455 21:273206 22:16551084 23:50.536603 24:1.6985482e+09 
0.48828125 1:5497437 2:1361270 3:1357963 4:1392289 5:1385915 6:303704 7:370789 8:283774 9:303649 10:254352 11:303564 12:316373 13:384360 14:319770 15:303490 16:444331 17:275497 18:384090 19:280806 20:399457 21:273206 22:16551282 23:50.53635 24:1.6985729e+09 
0.48828125 1:5497065 2:1361102 3:1357930 4:1392174 5:1385859 6:303657 7:370755 8:283717 9:303619 10:254330 11:303565 12:316379 13:384343 14:319713 15:303482 16:444315 17:275468 18:384048 19:280815 20:399450 21:273192 22:16550196 23:50.536659 24:1.6984562e+09 
0.48828125 1:771 2:202 3:167 4:210 5:192 6:49 7:48 8:52 9:33 10:28 11:38 12:37 13:56 14:52 15:36 16:78 17:42 18:53 19:37 20:58 21:37 22:2346 23:52.140078 24:238742.14 
0.48828125 1:942 2:226 3:189 4:271 5:256 6:49 7:52 8:45 9:58 10:30 11:33 12:51 13:68 14:54 15:50 16:99 17:64 18:71 19:47 20:90 21:43 22:2938 23:55.944798 24:291540.54 
0.48828125 1:1287 2:297 3:284 4:384 5:322 6:74 7:81 8:58 9:59 10:40 11:55 12:65 13:108 14:90 15:75 16:119 17:85 18:68 19:57 20:118 21:69 22:3986 23:54.856255 24:398962.82 
0.48828125 1:288 2:61 3:63 4:95 5:69 6:13 7:15 8:14 9:13 10:6 11:10 12:15 13:31 14:20 15:22 16:27 17:22 18:16 19:15 20:24 21:11 22:904 23:56.944444 24:89515.89 
0.48828125 1:1332 2:238 3:383 4:392 5:319 6:42 7:97 8:35 9:50 10:51 11:85 12:79 13:133 14:78 15:84 16:113 17:94 18:53 19:82 20:107 21:65 22:4086 23:53.378378 24:412364.86 
0.48828125 1:531 2:114 3:126 4:148 5:143 6:21 7:39 8:19 9:27 10:19 11:22 12:34 13:41 14:30 15:18 16:57 17:36 18:35 19:37 20:46 21:21 22:1644 23:54.80226 24:164127.37 
0.48828125 1:1863 2:363 3:460 4:600 5:440 6:77 7:119 8:71 9:69 10:51 11:88 12:89 13:196 14:126 15:109 16:200 17:142 18:82 19:108 20:168 21:68 22:5806 23:55.82394 24:578404.38 
0.48828125 1:591 2:149 3:138 4:159 5:145 6:32 7:44 8:26 9:34 10:28 11:28 12:37 13:35 14:41 15:35 16:43 17:34 18:36 19:21 20:57 21:29 22:1790 23:51.43824 24:182939.54 
0.4873046875 1:234 2:66 3:54 4:58 5:56 6:17 7:13 8:12 9:17 10:10 11:10 12:11 13:22 14:17 15:15 16:19 17:6 18:14 19:15 20:18 21:8 22:696 23:48.717949 24:72404.2 
0.4873046875 1:315 2:83 3:88 4:71 5:73 6:17 7:27 8:14 9:21 10:22 11:28 12:10 13:20 14:21 15:15 16:24 17:9 18:19 19:10 20:26 21:15 22:918 23:45.714286 24:97267.05 
0.4873046875 1:5497731 2:1361336 3:1358051 4:1392344 5:1386000 6:303719 7:370803 8:283774 9:303680 10:254365 11:303585 12:316397 13:384384 14:319777 15:303518 16:444342 17:275509 18:384115 19:280825 20:399479 21:273223 22:16552150 23:50.536194 24:1.698663e+09 
0.4873046875 1:5498202 2:1361436 3:1358143 4:1392461 5:1386162 6:303727 7:370825 8:283818 9:303697 10:254384 11:303604 12:316437 13:384388 14:319793 15:303538 16:444399 17:275529 18:384163 19:280846 20:399524 21:273260 22:16553650 23:50.536939 24:1.6988077e+09 
0.4873046875 1:5497758 2:1361336 3:1358040 4:1392340 5:1386042 6:303707 7:370802 8:283793 9:303674 10:254370 11:303576 12:316406 13:384367 14:319766 15:303514 16:444359 17:275502 18:384133 19:280827 20:399479 21:273235 22:16552280 23:50.536637 24:1.6986705e+09 
0.4873046875 1:5497590 2:1361299 3:1358028 4:1392286 5:1385977 6:303698 7:370796 8:283777 9:303670 10:254363 11:303580 12:316397 13:384364 14:319771 15:303497 16:444327 17:275499 18:384109 19:280831 20:399454 21:273225 22:16551706 23:50.536017 24:1.6986187e+09 
0.4873046875 1:5497293 2:1361267 3:1357899 4:1392220 5:1385907 6:303709 7:370771 8:283755 9:303666 10:254361 11:303538 12:316355 13:384337 14:319737 15:303491 16:444307 17:275489 18:384094 19:280791 20:399443 21:273213 22:16550840 23:50.536273 24:1.6985275e+09 
0.4873046875 1:5496225 2:1360984 3:1357631 4:1391949 5:1385661 6:303652 7:370704 8:283693 9:303587 10:254267 11:303487 12:316311 13:384259 14:319693 15:303374 16:444263 17:275425 18:384024 19:280759 20:399378 21:273154 22:16547670 23:50.536687 24:1.6981969e+09 
0.4873046875 1:816 2:188 3:197 4:250 5:181 6:43 7:54 8:50 9:25 10:28 11:44 12:29 13:79 14:51 15:51 16:83 17:54 18:50 19:31 20:56 21:36 22:2494 23:52.818627 24:253470.28 
0.4873046875 1:753 2:242 3:196 4:174 5:141 6:65 7:61 8:40 9:50 10:51 11:42 12:32 13:61 14:57 15:37 16:32 17:40 18:43 19:46 20:25 21:20 22:2136 23:41.832669 24:233492.32 
0.4873046875 1:5497920 2:1361382 3:1358076 4:1392409 5:1386053 6:303722 7:370806 8:283813 9:303677 10:254372 11:303592 12:316409 13:384381 14:319790 15:303531 16:444366 17:275521 18:384134 19:280825 20:399493 21:273235 22:16552764 23:50.536603 24:1.6987218e+09 
0.4873046875 1:5495673 2:1360897 3:1357556 4:1391778 5:1385442 6:303640 7:370698 8:283657 9:303560 10:254304 11:303473 12:316243 13:384243 14:319675 15:303385 16:444141 17:275397 18:383936 19:280707 20:399301 21:273137 22:16545786 23:50.534666 24:1.6980272e+09 
0.4873046875 1:5496228 2:1361007 3:1357708 4:1391922 5:1385591 6:303648 7:370721 8:283693 9:303608 10:254312 11:303509 12:316302 13:384294 14:319693 15:303425 16:444196 17:275424 18:384017 19:280763 20:399327 21:273134 22:16547482 23:50.534894 24:1.6981984e+09 
0.4873046875 1:5497884 2:1361389 3:1358058 4:1392364 5:1386073 6:303726 7:370805 8:283803 9:303686 10:254372 11:303586 12:316422 13:384360 14:319774 15:303516 16:444360 17:275514 18:384148 19:280833 20:399487 21:273239 22:16552642 23:50.536479 24:1.6987094e+09 
0.4873046875 1:5497077 2:1361204 3:1357890 4:1392144 5:1385839 6:303696 7:370768 8:283744 9:303638 10:254354 11:303548 12:316357 13:384323 14:319736 15:303459 16:444289 17:275468 18:384060 19:280807 20:399417 21:273189 22:16550120 23:50.535639 24:1.6984603e+09 
0.4873046875 1:5496879 2:1361164 3:1357882 4:1392076 5:1385757 6:303677 7:370764 8:283738 9:303636 10:254353 11:303545 12:316359 13:384316 14:319739 15:303474 16:444229 17:275444 18:384046 19:280790 20:399388 21:273175 22:16549424 23:50.534731 24:1.6983992e+09 
0.4873046875 1:879 2:195 3:219 4:243 5:222 6:42 7:62 8:45 9:35 10:34 11:48 12:58 13:58 14:53 15:47 16:78 17:49 18:55 19:41 20:75 21:45 22:2688 23:52.901024 24:271906.99 
0.4873046875 1:765 2:126 3:223 4:248 5:168 6:25 7:48 8:23 9:22 10:25 11:53 12:40 13:87 14:33 15:62 16:73 17:70 18:34 19:42 20:59 21:28 22:2362 23:54.379085 24:237542.72 
0.4873046875 1:5497881 2:1361372 3:1358088 4:1392387 5:1386034 6:303714 7:370817 8:283799 9:303678 10:254373 11:303594 12:316407 13:384384 14:319786 15:303522 16:444351 17:275523 18:384135 19:280825 20:399476 21:273233 22:16552604 23:50.536216 24:1.6987095e+09 
0.4873046875 1:5496969 2:1361117 3:1357983 4:1392110 5:1385759 6:303664 7:370775 8:283704 9:303624 10:254349 11:303574 12:316393 13:384346 14:319732 15:303501 16:444217 17:275473 18:384022 19:280812 20:399400 21:273164 22:16549676 23:50.534558 24:1.698427e+09 
0.4873046875 1:5497596 2:1361313 3:1357984 4:1392306 5:1385993 6:303704 7:370813 8:283772 9:303667 10:254365 11:303551 12:316399 13:384366 14:319772 15:303502 16:444340 17:275493 18:384115 19:280816 20:399476 21:273218 22:16551790 23:50.536616 24:1.6986209e+09 
0.4873046875 1:570 2:177 3:147 4:137 5:109 6:44 7:45 8:40 9:32 10:38 11:31 12:28 13:39 14:50 15:24 16:28 17:29 18:29 19:36 20:23 21:18 22:1632 23:43.157895 24:176793.99 
0.4873046875 1:5496921 2:1361165 3:1357852 4:1392099 5:1385805 6:303685 7:370754 8:283723 9:303648 10:254347 11:303541 12:316360 13:384296 14:319712 15:303467 16:444262 17:275466 18:384066 19:280781 20:399422 21:273181 22:16549650 23:50.535636 24:1.6984119e+09 
0.4873046875 1:5497974 2:1361379 3:1358092 4:1392413 5:1386090 6:303710 7:370820 8:283797 9:303694 10:254381 11:303591 12:316414 13:384384 14:319795 15:303526 16:444367 17:275523 18:384135 19:280832 20:399507 21:273246 22:16552954 23:50.536852 24:1.6987377e+09 
0.4873046875 1:5497179 2:1361248 3:1357892 4:1392184 5:1385855 6:303697 7:370778 8:283771 9:303648 10:254353 11:303531 12:316372 13:384335 14:319752 15:303476 16:444295 17:275467 18:384092 19:280806 20:399417 21:273183 22:16550436 23:50.53572 24:1.6984925e+09 
0.4873046875 1:5497488 2:1361285 3:1357983 4:1392272 5:1385948 6:303701 7:370775 8:283784 9:303666 10:254359 11:303568 12:316388 13:384350 14:319770 15:303504 16:444309 17:275489 18:384096 19:280818 20:399449 21:273221 22:16551416 23:50.536172 24:1.6985876e+09 
0.4873046875 1:5497008 2:1361195 3:1357829 4:1392149 5:1385835 6:303686 7:370752 8:283768 9:303629 10:254336 11:303526 12:316359 13:384308 14:319731 15:303467 16:444292 17:275460 18:384082 19:280784 20:399414 21:273191 22:16549984 23:50.536292 24:1.6984394e+09 
0.4873046875 1:5498493 2:1361500 3:1358215 4:1392540 5:1386238 6:303743 7:370846 8:283824 9:303717 10:254392 11:303621 12:316453 13:384415 14:319809 15:303554 16:444419 17:275551 18:384186 19:280860 20:399543 21:273275 22:16554542 23:50.537084 24:1.6988976e+09 
0.4873046875 1:945 2:251 3:261 4:226 5:207 6:58 7:71 8:58 9:47 10:51 11:63 12:52 13:74 14:52 15:64 16:71 17:35 18:73 19:42 20:55 21:32 22:2756 23:45.820106 24:292288.44 
0.4873046875 1:1725 2:394 3:421 4:501 5:409 6:80 7:117 8:79 9:87 10:71 11:84 12:107 13:136 14:106 15:111 16:133 17:126 18:106 19:86 20:135 21:73 22:5270 23:52.753623 24:534694.23 
0.4873046875 1:492 2:125 3:124 4:137 5:106 6:28 7:41 8:24 9:19 10:22 11:32 12:24 13:40 14:36 15:29 16:43 17:23 18:26 19:16 20:44 21:17 22:1470 23:49.390244 24:152643.26 
0.4873046875 1:1005 2:218 3:236 4:283 5:268 6:51 7:49 8:45 9:57 10:34 11:46 12:51 13:92 14:63 15:63 16:101 17:50 18:55 19:65 20:89 21:50 22:3112 23:54.825871 24:310752.62 
0.48828125 1:459 2:115 3:104 4:129 5:111 6:25 7:28 8:30 9:24 10:16 11:21 12:24 13:40 14:32 15:27 16:40 17:24 18:34 19:25 20:29 21:18 22:1398 23:52.287582 24:142239.6 
0.48828125 1:942 2:218 3:207 4:271 5:246 6:50 7:55 8:50 9:46 10:31 11:39 12:53 13:73 14:72 15:46 16:90 17:52 18:48 19:56 20:85 21:48 22:2918 23:54.883227 24:291618.55 
0.48828125 1:366 2:100 3:81 4:101 5:84 6:23 7:26 8:23 9:19 10:12 11:16 12:14 13:33 14:31 15:16 16:34 17:17 18:25 19:17 20:25 21:16 22:1102 23:50.546448 24:113519.38 
0.48828125 1:1767 2:414 3:405 4:507 5:441 6:102 7:96 8:81 9:102 10:89 11:82 12:89 13:123 14:102 15:114 16:157 17:115 18:88 19:91 20:169 21:78 22:5430 23:53.650255 24:547320.32 
0.48828125 1:1488 2:324 3:326 4:473 5:365 6:68 7:84 8:68 9:82 10:49 11:53 12:66 13:142 14:103 15:87 16:156 17:108 18:83 19:86 20:135 21:56 22:4652 23:56.317204 24:461929.65 
0.48828125 1:1359 2:312 3:303 4:390 5:354 6:80 7:65 8:61 9:83 10:53 11:65 12:54 13:116 14:74 15:76 16:143 17:82 18:81 19:82 20:117 21:66 22:4206 23:54.746137 24:420669.64 
0.48828125 1:1083 2:192 3:316 4:317 5:258 6:34 7:64 8:26 9:55 10:50 11:70 12:64 13:110 14:44 15:89 16:89 17:79 18:51 19:71 20:86 21:46 22:3316 23:53.093259 24:335245.89 
0.48828125 1:1317 2:293 3:297 4:401 5:326 6:68 7:74 8:56 9:72 10:49 11:55 12:53 13:125 14:85 15:79 16:137 17:85 18:68 19:74 20:120 21:57 22:4088 23:55.201215 24:408417.73 
0.48828125 1:1245 2:236 3:351 4:365 5:293 6:41 7:79 8:43 9:56 10:57 11:76 12:77 13:121 14:70 15:90 16:107 17:84 18:51 19:86 20:103 21:49 22:3806 23:52.851406 24:385596.98 
0.48828125 1:1068 2:235 3:235 4:341 5:257 6:58 7:60 8:50 9:46 10:41 11:43 12:44 13:98 14:53 15:77 16:110 17:85 18:62 19:46 20:92 21:50 22:3332 23:55.992509 24:331685.88 
0.48828125 1:1476 2:336 3:334 4:431 5:375 6:76 7:92 8:66 9:81 10:51 11:73 12:69 13:120 14:100 15:90 16:134 17:91 18:88 19:58 20:138 21:78 22:4564 23:54.607046 24:457186.85 
0.48828125 1:921 2:224 3:221 4:282 5:194 6:49 7:52 8:66 9:41 10:44 11:46 12:41 13:77 14:69 15:62 16:77 17:61 18:46 19:48 20:65 21:32 22:2794 23:51.682953 24:286340.3 
0.4873046875 1:831 2:209 3:177 4:250 5:195 6:50 7:52 8:53 9:42 10:27 11:34 12:37 13:70 14:64 15:40 16:81 17:56 18:56 19:42 20:62 21:32 22:2552 23:53.54994 24:258012.3 
0.4873046875 1:1263 2:314 3:289 4:386 5:274 6:76 7:82 8:80 9:57 10:56 11:53 12:65 13:105 14:89 15:95 16:105 17:84 18:74 19:49 20:104 21:43 22:3846 23:52.256532 24:392585.98 
0.4873046875 1:1152 2:271 3:256 4:350 5:275 6:64 7:68 8:58 9:63 10:40 11:40 12:59 13:109 14:81 15:72 16:109 17:77 18:68 19:68 20:95 21:38 22:3554 23:54.253472 24:357517.5 
0.4873046875 1:918 2:212 3:236 4:237 5:233 6:46 7:67 8:31 9:53 10:38 11:48 12:56 13:78 14:58 15:59 16:74 17:39 18:55 19:46 20:82 21:45 22:2776 23:51.198257 24:283608.55 
0.4873046875 1:513 2:121 3:112 4:125 5:155 6:33 7:26 8:24 9:30 10:18 11:29 12:27 13:31 14:22 15:17 16:61 17:23 18:41 19:33 20:44 21:29 22:1586 23:54.580897 24:157959.56 
0.4873046875 1:2706 2:718 3:576 4:747 5:665 6:181 7:153 8:150 9:165 10:106 11:88 12:146 13:218 14:203 15:170 16:218 17:140 18:159 19:147 20:223 21:123 22:8236 23:52.18034 24:838338.27 
0.4873046875 1:399 2:115 3:91 4:117 5:76 6:37 7:28 8:21 9:16 10:20 11:18 12:16 13:31 14:28 15:25 16:28 17:30 18:17 19:14 20:29 21:12 22:1184 23:48.370927 24:124213.25 
0.4873046875 1:5498382 2:1361485 3:1358181 4:1392518 5:1386198 6:303741 7:370842 8:283823 9:303710 10:254397 11:303608 12:316438 13:384411 14:319807 15:303553 16:444412 17:275542 18:384171 19:280851 20:399538 21:273267 22:16554196 23:50.536976 24:1.6988638e+09 
0.4873046875 1:5497836 2:1361332 3:1358067 4:1392369 5:1386068 6:303698 7:370808 8:283789 9:303686 10:254371 11:303587 12:316412 13:384373 14:319784 15:303520 16:444356 17:275510 18:384128 19:280828 20:399498 21:273242 22:16552546 23:50.53692 24:1.6986945e+09 
0.4873046875 1:5497959 2:1361383 3:1358084 4:1392402 5:1386090 6:303719 7:370809 8:283796 9:303691 10:254374 11:303588 12:316420 13:384376 14:319793 15:303529 16:444356 17:275524 18:384129 19:280832 20:399506 21:273252 22:16552902 23:50.53679 24:1.6987329e+09 
0.4873046875 1:1044 2:245 3:267 4:285 5:247 6:62 7:61 8:44 9:54 10:38 11:62 12:59 13:92 14:65 15:70 16:89 17:56 18:56 19:58 20:88 21:41 22:3152 23:50.957854 24:323224.78 
0.4873046875 1:5497377 2:1361242 3:1357944 4:1392269 5:1385922 6:303693 7:370766 8:283755 9:303672 10:254342 11:303560 12:316385 13:384335 14:319760 15:303497 16:444307 17:275510 18:384091 19:280799 20:399474 21:273201 22:16551136 23:50.536665 24:1.6985538e+09 
0.4873046875 1:5497194 2:1361213 3:1357911 4:1392182 5:1385888 6:303682 7:370769 8:283762 9:303646 10:254340 11:303556 12:316385 13:384315 14:319754 15:303470 16:444297 17:275471 18:384083 19:280801 20:399444 21:273199 22:16550528 23:50.536146 24:1.6984962e+09 
0.4873046875 1:5498139 2:1361425 3:1358130 4:1392444 5:1386140 6:303726 7:370826 8:283809 9:303697 10:254380 11:303599 12:316438 13:384385 14:319800 15:303532 16:444380 17:275528 18:384152 19:280845 20:399518 21:273256 22:16553446 23:50.536809 24:1.6987883e+09 
0.4873046875 1:5497686 2:1361335 3:1358010 4:1392323 5:1386018 6:303711 7:370804 8:283780 9:303680 10:254366 11:303562 12:316398 13:384365 14:319772 15:303501 16:444343 17:275512 18:384126 19:280823 20:399471 21:273228 22:16552054 23:50.536553 24:1.6986485e+09 
0.4873046875 1:552 2:113 3:141 4:157 5:141 6:16 7:45 8:19 9:28 10:21 11:32 12:29 13:49 14:36 15:28 16:52 17:34 18:35 19:26 20:48 21:26 22:1700 23:53.985507 24:170761.55 
0.4873046875 1:855 2:154 3:256 4:256 5:189 6:26 7:54 8:28 9:40 10:36 11:64 12:44 13:92 14:43 15:67 16:78 17:56 18:43 19:51 20:68 21:23 22:2600 23:52.046784 24:265057.35 
0.4873046875 1:5497209 2:1361154 3:1357956 4:1392234 5:1385865 6:303676 7:370769 8:283736 9:303621 10:254324 11:303565 12:316399 13:384349 14:319741 15:303498 16:444307 17:275488 18:384061 19:280805 20:399461 21:273183 22:16550616 23:50.536536 24:1.6985019e+09 
0.4873046875 1:765 2:182 3:159 4:205 5:219 6:46 7:39 8:48 9:38 10:20 11:29 12:52 13:51 14:57 15:37 16:75 17:32 18:47 19:47 20:71 21:46 22:2378 23:55.424837 24:236206.34 
0.4873046875 1:2664 2:663 3:587 4:715 5:699 6:154 7:137 8:135 9:182 10:107 11:98 12:178 13:191 14:191 15:166 16:193 17:149 18:156 19:173 20:224 21:131 22:8156 23:53.078078 24:823755.63 
0.4873046875 1:1893 2:477 3:381 4:565 5:470 6:125 7:81 8:134 9:88 10:50 11:68 12:112 13:140 14:153 15:118 16:172 17:111 18:100 19:103 20:169 21:87 22:5856 23:54.675119 24:587231.9 
0.4873046875 1:1425 2:373 3:304 4:398 5:350 6:96 7:64 8:79 9:93 10:54 11:54 12:78 13:109 14:104 15:99 16:103 17:79 18:78 19:78 20:118 21:66 22:4346 23:52.491228 24:441556.35 
0.4873046875 1:5496726 2:1361172 3:1357735 4:1392020 5:1385799 6:303695 7:370748 8:283747 9:303631 10:254329 11:303510 12:316353 13:384235 14:319718 15:303416 16:444254 17:275449 18:384079 19:280753 20:399406 21:273200 22:16549090 23:50.535883 24:1.6983507e+09 
0.4873046875 1:2598 2:589 3:562 4:744 5:703 6:141 7:127 8:113 9:156 10:83 11:88 12:139 13:235 14:183 15:165 16:226 17:149 18:131 19:165 20:225 21:154 22:8090 23:55.69669 24:803677.22 
0.4873046875 1:363 2:96 3:78 4:122 5:67 6:25 7:23 8:25 9:16 10:15 11:14 12:11 13:34 14:33 15:21 16:32 17:31 18:16 19:16 20:27 21:8 22:1104 23:52.066116 24:113351.21 
0.4873046875 1:5497785 2:1361323 3:1358009 4:1392369 5:1386084 6:303704 7:370787 8:283788 9:303685 10:254347 11:303570 12:316397 13:384379 14:319776 15:303508 16:444378 17:275507 18:384136 19:280829 20:399495 21:273253 22:16552476 23:50.53768 24:1.6986787e+09 
0.4873046875 1:5497713 2:1361313 3:1358025 4:1392329 5:1386046 6:303704 7:370791 8:283786 9:303677 10:254359 11:303583 12:316404 13:384361 14:319761 15:303504 16:444356 17:275508 18:384134 19:280829 20:399474 21:273238 22:16552176 23:50.536923 24:1.6986563e+09 
0.4873046875 1:5498271 2:1361448 3:1358159 4:1392482 5:1386182 6:303729 7:370838 8:283811 9:303705 10:254386 11:303603 12:316440 13:384402 14:319797 15:303544 16:444399 17:275538 18:384171 19:280846 20:399527 21:273266 22:16553870 23:50.537051 24:1.698829e+09 
0.4873046875 1:1551 2:356 3:355 4:469 5:371 6:82 7:109 8:65 9:84 10:60 11:64 12:65 13:147 14:109 15:86 16:140 17:110 18:89 19:77 20:123 21:72 22:4782 23:54.158607 24:481192.13 
0.4873046875 1:5496189 2:1360982 3:1357708 4:1391918 5:1385581 6:303655 7:370712 8:283692 9:303581 10:254310 11:303501 12:316317 13:384282 14:319688 15:303418 16:444217 17:275404 18:383987 19:280779 20:399349 21:273125 22:16547376 23:50.534998 24:1.6981864e+09 
0.4873046875 1:537 2:129 3:138 4:154 5:116 6:26 7:41 8:29 9:24 10:28 11:20 12:33 13:50 14:45 15:45 16:33 17:27 18:21 19:25 20:44 21:21 22:1614 23:50.27933 24:166643.11 
0.4873046875 1:5497917 2:1361370 3:1358061 4:1392392 5:1386094 6:303714 7:370813 8:283792 9:303686 10:254373 11:303581 12:316419 13:384368 14:319784 15:303507 16:444378 17:275519 18:384134 19:280840 20:399509 21:273244 22:16552806 23:50.537067 24:1.6987197e+09 
0.4873046875 1:927 2:255 3:215 4:253 5:204 6:67 7:59 8:51 9:52 10:44 11:43 12:49 13:64 14:65 15:49 16:73 17:53 18:53 19:49 20:72 21:28 22:2768 23:49.298813 24:287569.39 
0.4873046875 1:771 2:129 3:249 4:211 5:182 6:22 7:49 8:17 9:36 10:33 11:58 12:51 13:82 14:26 15:70 16:58 17:48 18:43 19:47 20:55 21:33 22:2328 23:50.972763 24:238259.29 
0.4873046875 1:441 2:108 3:116 4:120 5:97 6:24 7:31 8:23 9:21 10:22 11:26 12:22 13:40 14:29 15:32 16:32 17:21 18:24 19:21 20:30 21:21 22:1316 23:49.206349 24:136686.07 
0.4873046875 1:1230 2:313 3:311 4:320 5:286 6:72 7:91 8:55 9:69 10:66 11:67 12:56 13:95 14:78 15:69 16:95 17:64 18:71 19:57 20:92 21:57 22:3672 23:49.268293 24:380707.62 
0.4873046875 1:5498199 2:1361437 3:1358143 4:1392461 5:1386158 6:303725 7:370826 8:283814 9:303704 10:254388 11:303603 12:316429 13:384394 14:319795 15:303538 16:444391 17:275532 18:384161 19:280847 20:399516 21:273261 22:16553636 23:50.536894 24:1.6988068e+09 
0.4873046875 1:897 2:242 3:219 4:243 5:193 6:46 7:67 8:58 9:55 10:40 11:50 12:43 13:68 14:78 15:37 16:66 17:50 18:62 19:47 20:55 21:26 22:2666 23:48.606466 24:278241.42 
0.4873046875 1:5497728 2:1361338 3:1358032 4:1392340 5:1386018 6:303707 7:370805 8:283784 9:303678 10:254371 11:303570 12:316401 13:384374 14:319776 15:303517 16:444342 17:275508 18:384120 19:280825 20:399477 21:273229 22:16552172 23:50.536476 24:1.6986618e+09 
0.4873046875 1:5497785 2:1361347 3:1358049 4:1392359 5:1386030 6:303711 7:370809 8:283792 9:303672 10:254365 11:303577 12:316412 13:384378 14:319786 15:303514 16:444350 17:275507 18:384122 19:280832 20:399480 21:273230 22:16552348 23:50.536516 24:1.6986795e+09 
0.4873046875 1:5497470 2:1361226 3:1357909 4:1392339 5:1385996 6:303678 7:370772 8:283774 9:303651 10:254320 11:303542 12:316397 13:384344 14:319772 15:303490 16:444361 17:275515 18:384105 19:280799 20:399505 21:273223 22:16551610 23:50.538429 24:1.6985826e+09 
0.4873046875 1:5497989 2:1361372 3:1358077 4:1392426 5:1386114 6:303711 7:370804 8:283807 9:303691 10:254369 11:303581 12:316424 13:384377 14:319785 15:303529 16:444385 17:275527 18:384148 19:280837 20:399515 21:273246 22:16553058 23:50.537387 24:1.6987422e+09 
0.4873046875 1:5497974 2:1361364 3:1358066 4:1392421 5:1386123 6:303716 7:370815 8:283793 9:303681 10:254358 11:303576 12:316430 13:384379 14:319787 15:303520 16:444386 17:275526 18:384144 19:280832 20:399521 21:273256 22:16553036 23:50.537598 24:1.6987373e+09 
0.4873046875 1:5498031 2:1361399 3:1358083 4:1392431 5:1386118 6:303721 7:370821 8:283800 9:303695 10:254364 11:303585 12:316422 13:384386 14:319798 15:303519 16:444387 17:275522 18:384154 19:280832 20:399518 21:273245 22:16553160 23:50.537165 24:1.6987552e+09 
0.4873046875 1:5495979 2:1360879 3:1357553 4:1391922 5:1385625 6:303608 7:370692 8:283699 9:303551 10:254243 11:303460 12:316321 13:384244 14:319682 15:303372 16:444259 17:275421 18:384016 19:280745 20:399370 21:273146 22:16547052 23:50.537802 24:1.698121e+09 
0.4873046875 1:5497854 2:1361360 3:1358026 4:1392384 5:1386084 6:303710 7:370814 8:283800 9:303677 10:254364 11:303565 12:316419 13:384368 14:319784 15:303513 16:444374 17:275513 18:384143 19:280824 20:399503 21:273244 22:16552644 23:50.537319 24:1.6987004e+09 
0.4873046875 1:5497983 2:1361366 3:1358073 4:1392434 5:1386110 6:303717 7:370818 8:283790 9:303674 10:254354 11:303582 12:316427 13:384386 14:319794 15:303517 16:444387 17:275533 18:384134 19:280832 20:399522 21:273250 22:16553054 23:50.537515 24:1.6987405e+09 
0.4873046875 1:5498097 2:1361408 3:1358111 4:1392434 5:1386144 6:303721 7:370819 8:283802 9:303700 10:254372 11:303598 12:316429 13:384386 14:319794 15:303527 16:444386 17:275526 18:384155 19:280840 20:399519 21:273258 22:16553350 23:50.537086 24:1.6987751e+09 
0.4873046875 1:5497182 2:1361230 3:1357913 4:1392174 5:1385865 6:303694 7:370784 8:283763 9:303633 10:254343 11:303550 12:316360 13:384348 14:319753 15:303470 16:444297 17:275469 18:384084 19:280797 20:399409 21:273210 22:16550442 23:50.535693 24:1.6984928e+09 
0.4873046875 1:5497653 2:1361301 3:1358032 4:1392306 5:1386014 6:303694 7:370795 8:283777 9:303678 10:254368 11:303585 12:316413 13:384346 14:319760 15:303511 16:444328 17:275507 18:384122 19:280821 20:399476 21:273227 22:16551946 23:50.536474 24:1.6986378e+09 
0.4873046875 1:5498124 2:1361440 3:1358103 4:1392454 5:1386127 6:303737 7:370823 8:283811 9:303699 10:254384 11:303584 12:316415 13:384396 14:319791 15:303542 16:444387 17:275533 18:384158 19:280830 20:399513 21:273256 22:16553410 23:50.536892 24:1.6987843e+09 
0.4873046875 1:5497875 2:1361359 3:1358044 4:1392393 5:1386079 6:303705 7:370809 8:283796 9:303690 10:254363 11:303579 12:316409 13:384374 14:319783 15:303512 16:444369 17:275529 18:384149 19:280824 20:399494 21:273244 22:16552694 23:50.537198 24:1.6987071e+09 
0.4873046875 1:5498049 2:1361397 3:1358129 4:1392406 5:1386117 6:303717 7:370827 8:283800 9:303693 10:254380 11:303603 12:316430 13:384385 14:319785 15:303526 16:444372 17:275522 18:384155 19:280842 20:399498 21:273251 22:16553144 23:50.536527 24:1.6987601e+09 
0.4873046875 1:2430 2:538 3:513 4:760 5:619 6:126 7:132 8:110 9:125 10:84 11:107 12:93 13:206 14:158 15:132 16:278 17:161 18:126 19:119 20:251 21:107 22:7618 23:56.748971 24:753774.24 
0.4873046875 1:2535 2:591 3:552 4:762 5:630 6:130 7:140 8:153 9:128 10:90 11:97 12:135 13:202 14:176 15:160 16:239 17:163 18:155 19:127 20:220 21:116 22:7854 23:54.911243 24:786077.13 
0.4873046875 1:2244 2:548 3:537 4:594 5:565 6:133 7:115 8:111 9:148 10:118 11:110 12:111 13:167 14:130 15:142 16:187 17:115 18:126 19:139 20:181 21:112 22:6806 23:51.648841 24:693942.95 
0.4873046875 1:798 2:149 3:196 4:245 5:208 6:29 7:46 8:31 9:29 10:23 11:41 12:45 13:77 14:44 15:48 16:88 17:56 18:39 19:51 20:72 21:38 22:2502 23:56.766917 24:247112.91 
0.4873046875 1:891 2:191 3:214 4:252 5:234 6:39 7:54 8:31 9:50 10:36 11:42 12:46 13:76 14:50 15:51 16:91 17:55 18:49 19:53 20:85 21:41 22:2754 23:54.545455 24:275566.23 
0.4873046875 1:1983 2:279 3:512 4:694 5:498 6:43 7:100 8:47 9:79 10:57 11:107 12:82 13:233 14:103 15:137 16:248 17:168 18:67 19:135 20:207 21:78 22:6350 23:60.110943 24:615630.98 
0.4873046875 1:5497299 2:1361219 3:1357973 4:1392238 5:1385869 6:303693 7:370777 8:283764 9:303634 10:254352 11:303563 12:316377 13:384360 14:319754 15:303499 16:444302 17:275483 18:384069 19:280813 20:399431 21:273193 22:16550812 23:50.535854 24:1.6985299e+09 
0.4873046875 1:1422 2:266 3:386 4:436 5:334 6:58 7:90 8:39 9:64 10:68 11:98 12:65 13:119 14:68 15:78 16:143 17:116 18:57 19:84 20:131 21:56 22:4384 23:54.149086 24:440870.01 
0.4873046875 1:345 2:86 3:83 4:95 5:81 6:20 7:21 8:18 9:20 10:15 11:17 12:18 13:28 14:28 15:23 16:23 17:20 18:16 19:17 20:28 21:18 22:1042 23:51.014493 24:106900.1 
0.4873046875 1:5497956 2:1361352 3:1358118 4:1392418 5:1386068 6:303707 7:370806 8:283802 9:303675 10:254367 11:303603 12:316428 13:384392 14:319788 15:303532 16:444371 17:275525 18:384128 19:280849 20:399497 21:273227 22:16552884 23:50.536709 24:1.6987324e+09 
0.4873046875 1:5497779 2:1361344 3:1358035 4:1392348 5:1386052 6:303708 7:370809 8:283785 9:303681 10:254373 11:303567 12:316416 13:384362 14:319770 15:303516 16:444354 17:275509 18:384132 19:280825 20:399493 21:273235 22:16552358 23:50.536771 24:1.698677e+09 
0.4873046875 1:5497881 2:1361358 3:1358073 4:1392385 5:1386065 6:303716 7:370812 8:283786 9:303677 10:254376 11:303582 12:316416 13:384377 14:319774 15:303521 16:444364 17:275522 18:384125 19:280836 20:399496 21:273238 22:16552662 23:50.536743 24:1.6987089e+09 
0.4873046875 1:1518 2:395 3:398 4:383 5:342 6:89 7:121 8:78 9:71 10:84 11:94 12:81 13:106 14:105 15:72 16:116 17:74 18:81 19:78 20:109 21:65 22:4486 23:47.760211 24:469789.51 
0.4873046875 1:1425 2:355 3:303 4:408 5:359 6:89 7:74 8:83 9:79 10:48 11:55 12:78 13:115 14:94 15:84 16:130 17:84 18:94 19:83 20:110 21:67 22:4384 23:53.824561 24:441509.14 
0.4873046875 1:1158 2:271 3:276 4:360 5:251 6:63 7:79 8:47 9:69 10:50 11:50 12:49 13:114 14:84 15:75 16:100 17:88 18:60 19:59 20:99 21:27 22:3538 23:52.763385 24:359953.06 
0.4873046875 1:5498193 2:1361435 3:1358111 4:1392482 5:1386165 6:303732 7:370823 8:283816 9:303696 10:254376 11:303588 12:316425 13:384400 14:319789 15:303544 16:444407 17:275536 18:384170 19:280834 20:399524 21:273266 22:16553680 23:50.537458 24:1.6988054e+09 
0.4873046875 1:5497755 2:1361336 3:1358038 4:1392358 5:1386023 6:303708 7:370807 8:283798 9:303659 10:254365 11:303576 12:316407 13:384373 14:319771 15:303513 16:444359 17:275513 18:384128 19:280825 20:399472 21:273232 22:16552272 23:50.536646 24:1.6986703e+09 
0.4873046875 1:5495907 2:1360906 3:1357603 4:1391835 5:1385563 6:303619 7:370687 8:283688 9:303584 10:254294 11:303487 12:316290 13:384236 14:319673 15:303397 16:444173 17:275411 18:383992 19:280736 20:399319 21:273159 22:16546610 23:50.535753 24:1.6980981e+09 
0.4873046875 1:5497785 2:1361346 3:1358016 4:1392371 5:1386052 6:303722 7:370786 8:283794 9:303678 10:254362 11:303567 12:316398 13:384374 14:319769 15:303514 16:444367 17:275517 18:384127 19:280834 20:399482 21:273239 22:16552416 23:50.537135 24:1.6986794e+09 
0.4873046875 1:726 2:187 3:166 4:189 5:184 6:53 7:28 8:35 9:52 10:22 11:30 12:48 13:61 14:52 15:45 16:51 17:35 18:41 19:58 20:52 21:28 22:2198 23:51.37741 24:224513.07 
0.4873046875 1:852 2:247 3:181 4:239 5:185 6:74 7:39 8:63 9:42 10:24 11:39 12:41 13:74 14:64 15:50 16:82 17:41 18:56 19:50 20:59 21:19 22:2552 23:49.765258 24:264617.83 
0.4873046875 1:726 2:177 3:165 4:214 5:170 6:48 7:39 8:30 9:43 10:27 11:27 12:29 13:78 14:45 15:51 16:62 17:45 18:40 19:44 20:50 21:34 22:2220 23:52.892562 24:225258.41 
0.4873046875 1:558 2:162 3:112 4:154 5:130 6:46 7:30 8:36 9:32 10:17 11:18 12:31 13:45 14:51 15:38 16:46 17:17 18:31 19:25 20:53 21:17 22:1684 23:50.896057 24:173118.45 
0.4873046875 1:1197 2:288 3:279 4:332 5:298 6:70 7:80 8:54 9:64 10:42 11:58 12:53 13:110 14:79 15:64 16:119 17:60 18:77 19:61 20:98 21:56 22:3654 23:52.631579 24:370563.93 
0.4873046875 1:759 2:198 3:184 4:212 5:165 6:53 7:45 8:46 9:37 10:39 11:36 12:30 13:63 14:50 15:44 16:66 17:40 18:39 19:43 20:51 21:29 22:2272 23:49.670619 24:235511.1 
0.4873046875 1:828 2:150 3:254 4:239 5:185 6:29 7:54 8:27 9:33 10:46 11:62 12:49 13:79 14:29 15:62 16:73 17:63 18:40 19:58 20:57 21:26 22:2504 23:51.207729 24:256442.91 
0.4873046875 1:1353 2:301 3:364 4:390 5:298 6:71 7:86 8:63 9:53 10:60 11:89 12:75 13:114 14:78 15:93 16:103 17:89 18:64 19:70 20:97 21:59 22:4082 23:50.849963 24:419585.97 
0.4873046875 1:2433 2:612 3:592 4:645 5:584 6:136 7:147 8:123 9:159 10:138 11:111 12:139 13:186 14:160 15:182 16:146 17:133 18:131 19:134 20:179 21:122 22:7324 23:50.513769 24:753002.74 
0.4873046875 1:486 2:143 3:100 4:130 5:113 6:37 7:23 8:36 9:26 10:16 11:19 12:23 13:38 14:29 15:27 16:49 17:23 18:41 19:27 20:30 21:15 22:1458 23:50 24:150700.18 
0.4873046875 1:1026 2:252 3:231 4:292 5:251 6:56 7:78 8:44 9:60 10:41 11:46 12:52 13:86 14:65 15:64 16:92 17:63 18:76 19:37 20:91 21:39 22:3138 23:52.923977 24:317927.44 
0.4873046875 1:456 2:106 3:119 4:126 5:105 6:30 7:20 8:24 9:21 10:16 11:28 12:27 13:38 14:31 15:29 16:35 17:26 18:19 19:31 20:33 21:17 22:1374 23:50.657895 24:141260.93 
0.4873046875 1:789 2:181 3:186 4:223 5:199 6:41 7:59 8:26 9:42 10:30 11:38 12:50 13:60 14:50 15:52 16:68 17:46 18:48 19:29 20:83 21:36 22:2422 23:53.485425 24:244248.42 
0.4873046875 1:1149 2:262 3:270 4:337 5:280 6:59 7:72 8:59 9:44 10:35 11:53 12:53 13:114 14:76 15:70 16:113 17:65 18:64 19:60 20:86 21:61 22:3532 23:53.698869 24:356123.57 
0.4873046875 1:597 2:132 3:127 4:184 5:154 6:30 7:36 8:20 9:29 10:14 11:23 12:27 13:57 14:47 15:31 16:64 17:34 18:24 19:31 20:65 21:29 22:1870 23:56.616415 24:185101.69 
0.4873046875 1:3483 2:812 3:757 4:1035 5:879 6:185 7:206 8:159 9:202 10:134 11:134 12:188 13:259 14:270 15:192 16:298 17:234 18:163 19:183 20:342 21:165 22:10794 23:54.952627 24:1079534.9 
0.4873046875 1:960 2:231 3:221 4:274 5:234 6:58 7:65 8:44 9:41 10:36 11:36 12:61 13:79 14:70 15:58 16:87 17:52 18:44 19:53 20:92 21:40 22:2936 23:52.916667 24:297466.37 
0.4873046875 1:2142 2:531 3:519 4:578 5:514 6:109 7:168 8:97 9:119 10:97 11:110 12:119 13:156 14:161 15:105 16:162 17:123 18:126 19:99 20:175 21:95 22:6468 23:50.980392 24:663127.39 
0.4873046875 1:390 2:88 3:100 4:107 5:95 6:19 7:26 8:18 9:17 10:15 11:26 12:20 13:31 14:26 15:19 16:39 17:19 18:20 19:21 20:35 21:17 22:1184 23:51.794872 24:120696.81 
0.4873046875 1:1296 2:262 3:275 4:422 5:337 6:60 7:60 8:64 9:63 10:34 11:58 12:47 13:117 14:74 15:68 16:161 17:96 18:78 19:70 20:123 21:54 22:4110 23:58.564815 24:402110.4 
0.4873046875 1:5498319 2:1361463 3:1358162 4:1392505 5:1386189 6:303739 7:370830 8:283819 9:303706 10:254387 11:303606 12:316436 13:384407 14:319803 15:303551 16:444407 17:275540 18:384165 19:280849 20:399535 21:273266 22:16554026 23:50.537155 24:1.6988442e+09 
0.4873046875 1:5498379 2:1361481 3:1358180 4:1392523 5:1386195 6:303739 7:370840 8:283821 9:303711 10:254390 11:303610 12:316439 13:384414 14:319812 15:303551 16:444406 17:275548 18:384170 19:280853 20:399534 21:273266 22:16554194 23:50.53704 24:1.698863e+09 
0.4873046875 1:459 2:103 3:105 4:138 5:113 6:22 7:29 8:25 9:18 10:16 11:15 12:17 13:48 14:34 15:24 16:52 17:24 18:21 19:28 20:38 21:22 22:1420 23:54.684096 24:142326.53 
0.4873046875 1:411 2:109 3:78 4:116 5:108 6:24 7:29 8:29 9:18 10:11 11:17 12:19 13:27 14:28 15:17 16:45 17:21 18:37 19:11 20:34 21:19 22:1270 23:54.501217 24:127304.11 
0.4873046875 1:711 2:181 3:158 4:202 5:170 6:45 7:45 8:36 9:38 10:33 11:29 12:32 13:55 14:53 15:37 16:62 17:42 18:33 19:38 20:61 21:34 22:2166 23:52.320675 24:220431.42 
0.4873046875 1:5497755 2:1361311 3:1358031 4:1392357 5:1386056 6:303700 7:370799 8:283785 9:303674 10:254365 11:303574 12:316412 13:384365 14:319761 15:303527 16:444361 17:275509 18:384132 19:280816 20:399499 21:273243 22:16552336 23:50.537228 24:1.6986696e+09 
0.4873046875 1:5496861 2:1361154 3:1357825 4:1392117 5:1385765 6:303686 7:370760 8:283728 9:303616 10:254332 11:303525 12:316327 13:384335 14:319721 15:303458 16:444275 17:275464 18:384051 19:280776 20:399391 21:273187 22:16549486 23:50.535788 24:1.6983946e+09 
0.4873046875 1:5497872 2:1361355 3:1358084 4:1392372 5:1386061 6:303711 7:370818 8:283791 9:303677 10:254370 11:303590 12:316418 13:384387 14:319775 15:303535 16:444354 17:275509 18:384141 19:280822 20:399486 21:273240 22:16552610 23:50.536517 24:1.6987059e+09 
0.4873046875 1:5498175 2:1361439 3:1358134 4:1392446 5:1386156 6:303732 7:370829 8:283809 9:303701 10:254379 11:303597 12:316437 13:384395 14:319793 15:303543 16:444381 17:275525 18:384167 19:280839 20:399513 21:273263 22:16553554 23:50.536805 24:1.6987992e+09 
0.4873046875 1:5497764 2:1361343 3:1357999 4:1392372 5:1386050 6:303706 7:370813 8:283784 9:303674 10:254372 11:303558 12:316400 13:384368 14:319779 15:303509 16:444364 17:275516 18:384120 19:280818 20:399500 21:273240 22:16552372 23:50.537309 24:1.6986731e+09 
0.4873046875 1:5497926 2:1361328 3:1358120 4:1392412 5:1386066 6:303701 7:370805 8:283802 9:303660 10:254366 11:303600 12:316430 13:384392 14:319776 15:303537 16:444377 17:275522 18:384125 19:280846 20:399496 21:273233 22:16552808 23:50.536839 24:1.698723e+09 
0.4873046875 1:5497548 2:1361284 3:1357981 4:1392301 5:1385982 6:303699 7:370792 8:283781 9:303654 10:254361 11:303566 12:316388 13:384346 14:319765 15:303493 16:444342 17:275504 18:384101 19:280810 20:399473 21:273230 22:16551662 23:50.536767 24:1.6986061e+09 
0.4873046875 1:576 2:150 3:137 4:164 5:125 6:33 7:44 8:29 9:28 10:28 11:29 12:20 13:50 14:40 15:32 16:52 17:33 18:34 19:22 20:44 21:23 22:1730 23:50.173611 24:178810.95 
0.4873046875 1:804 2:229 3:202 4:194 5:179 6:62 7:56 8:40 9:44 10:42 11:42 12:44 13:67 14:56 15:38 16:56 17:38 18:42 19:59 20:43 21:30 22:2354 23:46.393035 24:248818.82 
0.4873046875 1:5497665 2:1361305 3:1357998 4:1392354 5:1386008 6:303695 7:370795 8:283792 9:303670 10:254352 11:303569 12:316389 13:384374 14:319772 15:303517 16:444352 17:275512 18:384133 19:280803 20:399475 21:273231 22:16552054 23:50.537128 24:1.6986428e+09 
0.4873046875 1:780 2:172 3:200 4:210 5:198 6:35 7:47 8:37 9:46 10:42 11:47 12:43 13:56 14:43 15:56 16:63 17:43 18:45 19:38 20:69 21:37 22:2376 23:52.307692 24:241119.41 
0.4873046875 1:771 2:203 3:190 4:201 5:177 6:38 7:65 8:47 9:43 10:43 11:33 12:33 13:71 14:53 15:47 16:62 17:34 18:59 19:35 20:44 21:34 22:2298 23:49.027237 24:238751.21 
0.4873046875 1:5497221 2:1361239 3:1357870 4:1392236 5:1385876 6:303696 7:370777 8:283761 9:303647 10:254344 11:303533 12:316369 13:384321 14:319759 15:303476 16:444289 17:275508 18:384082 19:280781 20:399442 21:273209 22:16550666 23:50.536662 24:1.6985062e+09 
-0.5 1:189 2:65 3:53 4:34 5:37 6:15 7:14 8:13 9:15 10:16 11:13 12:9 13:12 14:10 15:9 16:9 17:5 18:15 19:14 20:3 21:4 22:520 23:37.566138 24:58391.4 
-0.5 1:5498578 2:1361525 3:1358234 4:1392563 5:1386256 6:303748 7:370852 8:283832 9:303721 10:254399 11:303623 12:316457 13:384421 14:319817 15:303561 16:444426 17:275552 18:384189 19:280864 20:399551 21:273278 22:16554794 23:50.537048 24:1.698924e+09 
-0.5 1:213 2:70 3:52 4:49 5:42 6:20 7:21 8:14 9:8 10:14 11:12 12:13 13:8 14:18 15:5 16:11 17:12 18:11 19:10 20:12 21:7 22:608 23:42.723005 24:66037.24 
-0.5 1:928 2:225 3:245 4:224 5:234 6:53 7:71 8:47 9:36 10:40 11:57 12:73 13:59 14:49 15:43 16:83 17:42 18:65 19:58 20:69 21:39 22:2772 23:49.353448 24:286427.47 
-0.5 1:2275 2:624 3:487 4:564 5:600 6:152 7:157 8:138 9:113 10:97 11:102 12:122 13:139 14:139 15:97 16:207 17:104 18:173 19:103 20:166 21:136 22:6878 23:51.164835 24:702782.17 
-0.5 1:1708 2:484 3:338 4:427 5:459 6:117 7:115 8:101 9:100 10:83 11:64 12:71 13:105 14:104 15:76 16:155 17:79 18:129 19:67 20:129 21:111 22:5188 23:51.873536 24:527732.63 
-0.5 1:114 2:25 3:36 4:24 5:29 6:6 7:4 8:5 9:7 10:5 11:8 12:13 13:8 14:6 15:9 16:4 17:3 18:5 19:12 20:7 21:4 22:334 23:46.491228 24:35086.35 
-0.5 1:600 2:176 3:106 4:156 5:162 6:43 7:33 8:50 9:33 10:21 11:23 12:24 13:32 14:37 15:32 16:55 17:28 18:58 19:12 20:42 21:40 22:1836 23:53 24:185590.41 
-0.5 1:1427 2:369 3:334 4:350 5:374 6:87 7:92 8:95 9:63 10:55 11:77 12:83 13:90 14:72 15:77 16:130 17:60 18:124 19:58 20:94 21:82 22:4302 23:50.735809 24:440567.8 
-0.5 1:1142 2:256 3:314 4:284 5:288 6:51 7:75 8:65 9:44 10:46 11:80 12:74 13:80 14:54 15:66 16:108 17:49 18:85 19:59 20:83 21:54 22:3428 23:50.087566 24:352494.38 
-0.5 1:780 2:206 3:227 4:185 5:162 6:44 7:60 8:46 9:37 10:43 11:59 12:41 13:56 14:53 15:46 16:49 17:30 18:47 19:33 20:47 21:29 22:2254 23:44.487179 24:241340.95 
-0.5 1:312 2:69 3:74 4:79 5:90 6:13 7:14 8:18 9:18 10:13 11:15 12:24 13:21 14:16 15:19 16:23 17:16 18:22 19:25 20:19 21:21 22:962 23:54.166667 24:96173.19 
-0.5 1:737 2:205 3:221 4:134 5:177 6:48 7:66 8:30 9:42 10:56 11:57 12:60 13:32 14:38 15:24 16:40 17:24 18:45 19:57 20:40 21:31 22:2096 23:42.1981 24:226750.81 
-0.5 1:3460 2:993 3:1081 4:686 5:700 6:222 7:335 8:180 9:165 10:282 11:266 12:208 13:233 14:186 15:201 16:158 17:123 18:213 19:186 20:132 21:142 22:9692 23:40.057803 24:1068127.4 
-0.5 1:3145 2:863 3:1023 4:635 5:624 6:190 7:303 8:158 9:140 10:255 11:259 12:177 13:225 14:163 15:191 16:155 17:113 18:184 19:162 20:126 21:131 22:8808 23:40.031797 24:971000.06 
-0.5 1:1265 2:338 3:446 4:248 5:233 6:80 7:113 8:55 9:64 10:93 11:132 12:75 13:92 14:66 15:81 16:51 17:45 18:74 19:65 20:51 21:38 22:3492 23:38.023715 24:390574.4 
-0.5 1:2255 2:657 3:843 4:397 5:358 6:158 7:245 8:107 9:87 10:186 11:239 12:153 13:165 14:119 15:131 16:70 17:65 18:135 19:127 20:48 21:43 22:6020 23:33.481153 24:696451.38 
-0.5 1:2153 2:624 3:782 4:401 5:346 6:145 7:229 8:115 9:77 10:179 11:209 12:135 13:165 14:116 15:124 16:91 17:60 18:127 19:125 20:51 21:41 22:5800 23:34.695773 24:665406.42 
-0.5 1:597 2:132 3:186 4:143 5:136 6:23 7:38 8:37 9:26 10:30 11:52 12:32 13:51 14:34 15:37 16:50 17:21 18:37 19:37 20:33 21:25 22:1752 23:46.733668 24:184346.38 
-0.2509765625 1:5498577 2:1361524 3:1358234 4:1392563 5:1386256 6:303748 7:370851 8:283832 9:303721 10:254399 11:303623 12:316457 13:384421 14:319816 15:303561 16:444426 17:275552 18:384189 19:280864 20:399551 21:273278 22:16554792 23:50.537057 24:1.6989237e+09 
-0.5 1:166 2:41 3:54 4:32 5:39 6:9 7:17 8:6 9:6 10:11 11:11 12:14 13:12 14:6 15:8 16:12 17:6 18:12 19:13 20:8 21:4 22:474 23:42.771084 24:51098.59 
-0.5 1:455 2:126 3:178 4:75 5:76 6:36 7:49 8:17 9:11 10:35 11:54 12:21 13:39 14:16 15:25 16:25 17:7 18:26 19:22 20:10 21:16 22:1212 23:33.186813 24:140296.68 
-0.5 1:225 2:62 3:81 4:43 5:39 6:14 7:27 8:8 9:10 10:19 11:22 12:14 13:14 14:15 15:9 16:9 17:9 18:12 19:10 20:11 21:5 22:614 23:36.444444 24:69510.41 
-0.5 1:252 2:70 3:91 4:48 5:43 6:16 7:29 8:10 9:12 10:20 11:26 12:14 13:16 14:18 15:10 16:9 17:10 18:13 19:12 20:11 21:6 22:686 23:36.111111 24:77860.75 
-0.5 1:708 2:157 3:158 4:173 5:220 6:32 7:49 8:25 9:45 10:23 11:22 12:53 13:49 14:33 15:41 16:61 17:32 18:64 19:34 20:61 21:51 22:2202 23:55.508475 24:217826.58 
-0.5 1:1380 2:312 3:315 4:333 5:420 6:71 7:90 8:57 9:75 10:44 11:65 12:103 13:78 14:59 15:68 16:129 17:65 18:120 19:67 20:121 21:92 22:4266 23:54.565217 24:424641.22 
-0.5 1:2446 2:576 3:614 4:586 5:670 6:126 7:176 8:125 9:111 10:95 11:148 12:181 13:128 14:122 15:121 16:210 17:113 18:196 19:106 20:200 21:143 22:7404 23:51.349141 24:753866.05 
-0.5 1:2843 2:652 3:725 4:721 5:745 6:133 7:202 8:144 9:141 10:119 11:168 12:191 13:169 14:151 15:163 16:227 17:150 18:218 19:113 20:228 21:165 22:8618 23:51.565248 24:877566.62 
-0.5 1:2487 2:548 3:614 4:636 5:689 6:99 7:154 8:124 9:140 10:108 11:137 12:163 13:148 14:118 15:150 16:208 17:138 18:193 19:114 20:204 21:151 22:7624 23:53.277041 24:767051.01 
-0.5 1:2686 2:684 3:590 4:669 5:743 6:137 7:162 8:173 9:175 10:118 11:121 12:165 13:141 14:152 15:151 16:206 17:141 18:241 19:110 20:195 21:159 22:8196 23:52.568876 24:828826.07 
-0.5 1:1992 2:560 3:496 4:474 5:462 6:128 7:156 8:127 9:120 10:111 11:118 12:101 13:120 14:129 15:109 16:125 17:96 18:164 19:66 20:116 21:95 22:5856 23:46.987952 24:615939.07 
-0.5 1:5498574 2:1361523 3:1358233 4:1392562 5:1386256 6:303748 7:370851 8:283832 9:303720 10:254398 11:303623 12:316457 13:384420 14:319816 15:303561 16:444426 17:275552 18:384189 19:280864 20:399551 21:273278 22:16554784 23:50.537067 24:1.6989227e+09 
-0.5 1:107 2:32 3:35 4:20 5:20 6:8 7:10 8:3 9:8 10:10 11:8 12:5 13:7 14:6 15:4 16:5 17:3 18:5 19:8 20:5 21:2 22:294 23:37.383178 24:33055.14 
-0.5 1:5498570 2:1361522 3:1358232 4:1392560 5:1386256 6:303748 7:370850 8:283831 9:303721 10:254398 11:303623 12:316457 13:384420 14:319816 15:303561 16:444425 17:275551 18:384188 19:280864 20:399551 21:273278 22:16554772 23:50.537067 24:1.6989215e+09 
-0.5 1:844 2:187 3:182 4:219 5:256 6:28 7:48 8:57 9:41 10:33 11:38 12:60 13:37 14:40 15:43 16:84 17:43 18:74 19:39 20:72 21:55 22:2638 23:56.279621 24:260077.43 
-0.5 1:1231 2:279 3:280 4:321 5:351 6:50 7:76 8:72 9:65 10:50 11:59 12:81 13:70 14:64 15:66 16:111 17:66 18:100 19:58 20:99 21:73 22:3806 23:54.589764 24:379754.63 
-0.5 1:1200 2:278 3:287 4:326 5:309 6:62 7:76 8:53 9:71 10:44 11:65 12:72 13:87 14:75 15:71 16:94 17:73 18:82 19:55 20:100 21:61 22:3670 23:52.916667 24:371071.17 
-0.5 1:1806 2:414 3:400 4:500 5:492 6:91 7:104 8:94 9:98 10:65 11:89 12:110 13:111 14:97 15:111 16:166 17:103 18:135 19:70 20:169 21:96 22:5596 23:54.928018 24:558243.18 
-0.5 1:2274 2:484 3:542 4:620 5:628 6:89 7:136 8:132 9:106 10:74 11:128 12:161 13:141 14:126 15:134 16:218 17:116 18:175 19:106 20:205 21:118 22:7044 23:54.881266 24:702196.5 
-0.5 1:3692 2:816 3:956 4:964 5:956 6:140 7:233 8:216 9:194 10:174 11:225 12:251 13:248 14:205 15:259 16:284 17:192 18:265 19:180 20:284 21:191 22:11224 23:52.004334 24:1140215.5 
-0.5 1:2608 2:609 3:675 4:678 5:646 6:110 7:172 8:151 9:148 10:152 11:150 12:159 13:182 14:140 15:209 16:175 17:139 18:179 19:113 20:191 21:133 22:7864 23:50.766871 24:806104.23 
-0.5 1:294 2:80 3:89 4:71 5:54 6:19 7:22 8:17 9:14 10:22 11:23 12:11 13:20 14:20 15:15 16:18 17:16 18:11 19:16 20:16 21:6 22:838 23:42.517007 24:91137.17 
-0.5 1:1076 2:292 3:229 4:269 5:286 6:67 7:71 8:60 9:70 10:50 11:43 12:59 13:61 14:68 15:47 16:85 17:56 18:84 19:52 20:78 21:59 22:3262 23:51.579926 24:332396.94 
-0.5 1:3576 2:771 3:842 4:942 5:1021 6:134 7:199 8:194 9:205 10:122 11:182 12:264 13:218 14:169 15:207 16:346 17:187 18:308 19:197 20:310 21:185 22:11078 23:54.893736 24:1102997.5 
-0.5 1:5420 2:1185 3:1255 4:1468 5:1512 6:217 7:299 8:321 9:279 10:194 11:273 12:379 13:319 14:271 15:323 16:527 17:296 18:435 19:269 20:481 21:289 22:16800 23:54.98155 24:1673447.3 
-0.5 1:3120 2:675 3:728 4:855 5:862 6:127 7:185 8:171 9:150 10:118 11:158 12:193 13:195 14:170 15:185 16:300 17:170 18:219 19:136 20:289 21:186 22:9674 23:55.032051 24:963630.81 
-0.5 1:2396 2:498 3:564 4:677 5:657 6:81 7:143 8:128 9:126 10:83 11:119 12:145 13:173 14:133 15:159 16:231 17:132 18:182 19:98 20:222 21:139 22:7460 23:55.676127 24:740424.65 
-0.5 1:3212 2:683 3:702 4:908 5:919 6:123 7:172 8:182 9:168 10:92 11:153 12:200 13:204 14:159 15:191 16:334 17:192 18:272 19:132 20:298 21:193 22:10078 23:56.880448 24:992158.71 
-0.5 1:2038 2:458 3:449 4:575 5:556 6:95 7:114 8:116 9:98 10:68 11:100 12:113 13:132 14:100 15:111 16:217 17:126 18:160 19:88 20:180 21:111 22:6338 23:55.495584 24:630127.81 
-0.5 1:784 2:172 3:164 4:204 5:244 6:37 7:40 8:37 9:48 10:30 11:32 12:54 13:43 14:35 15:46 16:84 17:36 18:61 19:41 20:84 21:48 22:2464 23:57.142857 24:241495.58 
-0.5 1:2291 2:556 3:392 4:627 5:716 6:117 7:110 8:159 9:139 10:75 11:75 12:112 13:112 14:116 15:97 16:284 17:108 18:218 19:91 20:226 21:159 22:7268 23:58.62069 24:706870.83 
-0.5 1:2568 2:616 3:497 4:702 5:753 6:127 7:115 8:188 9:148 10:83 11:119 12:121 13:128 14:129 15:118 16:291 17:136 18:240 19:99 20:222 21:173 22:8046 23:56.658879 24:792993.68 
-0.5 1:1354 2:312 3:353 4:347 5:342 6:66 7:64 8:93 9:66 10:56 11:102 12:82 13:72 14:71 15:83 16:111 17:73 18:96 19:62 20:100 21:74 22:4086 23:50.886263 24:418253.27 
-0.5 1:1886 2:437 3:437 4:512 5:500 6:88 7:117 8:123 9:82 10:68 11:94 12:106 13:139 14:122 15:99 16:182 17:93 18:133 19:97 20:141 21:108 22:5796 23:53.658537 24:582966.01 
-0.5 1:2590 2:590 3:622 4:695 5:683 6:121 7:152 8:164 9:118 10:88 11:142 12:155 13:190 14:149 15:150 16:243 17:130 18:198 19:130 20:188 21:139 22:7936 23:53.204633 24:800327.29 
-0.5 1:2015 2:423 3:489 4:533 5:570 6:89 7:105 8:96 9:100 10:64 11:124 12:129 13:126 14:87 15:122 16:191 17:115 18:151 19:91 20:178 21:128 22:6236 23:54.739454 24:621555.21 
-0.5 1:2493 2:518 3:595 4:671 5:709 6:98 7:151 8:109 9:128 10:86 11:146 12:154 13:158 14:113 15:142 16:248 17:148 18:190 19:104 20:236 21:152 22:7746 23:55.354994 24:769180.99 
-0.5 1:2661 2:570 3:657 4:705 5:729 6:109 7:176 8:112 9:147 10:103 11:151 12:167 13:184 14:133 15:151 16:251 17:155 18:200 19:126 20:239 21:144 22:8190 23:53.889515 24:821304.34 
-0.5 1:1749 2:368 3:455 4:465 5:461 6:71 7:107 8:74 9:98 10:72 11:108 12:106 13:128 14:96 15:107 16:152 17:99 18:112 19:92 20:153 21:93 22:5350 23:52.94454 24:540079.47 
-0.5 1:743 2:229 3:256 4:144 5:114 6:56 7:91 8:35 9:26 10:67 11:71 12:33 13:58 14:50 15:37 16:34 17:20 18:35 19:30 20:28 21:18 22:2002 23:34.724092 24:229988.14 
-0.5 1:317 2:76 3:126 4:65 5:50 6:17 7:31 8:16 9:7 10:24 11:39 12:20 13:25 14:17 15:20 16:12 17:14 18:13 19:18 20:8 21:9 22:864 23:36.277603 24:98007.53 
-0.5 1:601 2:170 3:175 4:133 5:123 6:44 7:43 8:26 9:39 10:41 11:48 12:24 13:42 14:33 15:28 16:40 17:23 18:34 19:36 20:32 21:18 22:1714 23:42.595674 24:185850.68 
-0.5 1:5498564 2:1361521 3:1358231 4:1392558 5:1386254 6:303747 7:370850 8:283831 9:303721 10:254398 11:303623 12:316456 13:384420 14:319816 15:303559 16:444425 17:275550 18:384188 19:280864 20:399550 21:273278 22:16554752 23:50.537049 24:1.6989196e+09 
-0.5 1:5498571 2:1361523 3:1358231 4:1392561 5:1386256 6:303748 7:370851 8:283831 9:303721 10:254398 11:303622 12:316457 13:384420 14:319817 15:303559 16:444426 17:275552 18:384188 19:280864 20:399551 21:273278 22:16554776 23:50.537076 24:1.6989218e+09 
-0.5 1:5498577 2:1361524 3:1358234 4:1392563 5:1386256 6:303748 7:370851 8:283832 9:303721 10:254399 11:303623 12:316457 13:384421 14:319816 15:303561 16:444426 17:275552 18:384189 19:280864 20:399551 21:273278 22:16554792 23:50.537057 24:1.6989237e+09 
-0.5 1:5498570 2:1361522 3:1358232 4:1392561 5:1386255 6:303748 7:370850 8:283832 9:303720 10:254399 11:303623 12:316457 13:384419 14:319815 15:303561 16:444426 17:275552 18:384188 19:280863 20:399551 21:273278 22:16554772 23:50.537067 24:1.6989215e+09 
-0.5 1:5498574 2:1361523 3:1358233 4:1392562 5:1386256 6:303747 7:370850 8:283832 9:303721 10:254399 11:303623 12:316457 13:384420 14:319816 15:303561 16:444426 17:275552 18:384189 19:280864 20:399551 21:273278 22:16554784 23:50.537067 24:1.6989227e+09 
-0.5 1:100 2:24 3:31 4:29 5:16 6:6 7:8 8:4 9:5 10:8 11:7 12:3 13:9 14:8 15:6 16:5 17:8 18:1 19:6 20:6 21:2 22:290 23:45 24:31138.84 
-0.5 1:230 2:63 3:76 4:47 5:44 6:18 7:18 8:7 9:15 10:17 11:20 12:13 13:15 14:13 15:11 16:12 17:10 18:10 19:16 20:14 21:3 22:642 23:39.565217 24:71065.38 
-0.5 1:287 2:59 3:73 4:69 5:86 6:9 7:16 8:12 9:17 10:4 11:18 12:25 13:17 14:15 15:13 16:25 17:13 18:27 19:17 20:23 21:16 22:884 23:54.006969 24:88288.14 
-0.5 1:949 2:234 3:227 4:239 5:249 6:57 7:53 8:52 9:47 10:31 11:53 12:64 13:58 14:43 15:49 16:84 17:52 18:79 19:51 20:66 21:48 22:2874 23:51.42255 24:293046.67 
-0.5 1:1362 2:335 3:318 4:355 5:354 6:79 7:86 8:79 9:65 10:53 11:70 12:82 13:93 14:57 15:73 16:140 17:70 18:121 19:68 20:98 21:62 22:4142 23:52.0558 24:420914.08 
-0.5 1:844 2:212 3:213 4:206 5:213 6:45 7:66 8:47 9:40 10:43 11:52 12:48 13:57 14:37 15:42 16:85 17:33 18:73 19:39 20:60 21:34 22:2526 23:49.64455 24:260623.08 
-0.5 1:1236 2:290 3:297 4:304 5:345 6:57 7:85 8:79 9:52 10:57 11:64 12:74 13:89 14:58 15:67 16:123 17:44 18:102 19:67 20:80 21:79 22:3770 23:52.508091 24:381039.6 
-0.5 1:2576 2:593 3:611 4:674 5:698 6:121 7:167 8:147 9:123 10:115 11:128 12:143 13:192 14:120 15:155 16:247 17:123 18:203 19:127 20:183 21:155 22:7896 23:53.26087 24:795345.19 
-0.5 1:1834 2:412 3:431 4:502 5:489 6:88 7:108 8:93 9:99 10:78 11:91 12:92 13:143 14:80 15:120 16:177 17:105 18:143 19:84 20:141 21:103 22:5650 23:54.034896 24:566837.62 
-0.5 1:1535 2:345 3:377 4:419 5:394 6:73 7:82 8:90 9:74 10:58 11:99 12:87 13:104 14:78 15:97 16:145 17:80 18:111 19:69 20:126 21:77 22:4696 23:52.964169 24:474630 
-0.5 1:980 2:222 3:244 4:257 5:257 6:45 7:56 8:59 9:48 10:43 11:63 12:63 13:60 14:51 15:63 16:87 17:43 18:69 19:46 20:82 21:54 22:2988 23:52.44898 24:302698.64 
-0.5 1:5498574 2:1361523 3:1358233 4:1392562 5:1386256 6:303748 7:370851 8:283832 9:303720 10:254399 11:303623 12:316457 13:384420 14:319816 15:303561 16:444426 17:275552 18:384188 19:280864 20:399551 21:273278 22:16554784 23:50.537067 24:1.6989227e+09 
-0.5 1:1412 2:381 3:288 4:343 5:400 6:72 7:85 8:101 9:102 10:78 11:60 12:59 13:75 14:81 15:66 16:121 17:66 18:129 19:61 20:92 21:97 22:4310 23:52.620397 24:435547.68 
-0.5 1:1913 2:545 3:458 4:432 5:478 6:126 7:131 8:124 9:125 10:113 11:105 12:86 13:116 14:105 15:105 16:138 17:77 18:162 19:78 20:108 21:107 22:5646 23:47.569263 24:590481.89 
-0.5 1:160 2:56 3:42 4:34 5:28 6:17 7:13 8:13 9:7 10:13 11:11 12:8 13:7 14:12 15:8 16:7 17:6 18:8 19:6 20:7 21:5 22:444 23:38.75 24:49623.78 
-0.5 1:207 2:67 3:55 4:50 5:35 6:20 7:19 8:10 9:9 10:17 11:14 12:7 13:12 14:14 15:14 16:8 17:12 18:7 19:3 20:14 21:8 22:584 23:41.062802 24:64315.13 
-0.5 1:1923 2:370 3:522 4:556 5:475 6:60 7:106 8:86 9:94 10:74 11:121 12:106 13:188 14:100 15:147 16:179 17:106 18:113 19:114 20:152 21:83 22:5908 23:53.614145 24:595093.11 
-0.5 1:2207 2:452 3:595 4:626 5:534 6:78 7:128 8:106 9:111 10:89 11:137 12:125 13:209 14:127 15:163 16:191 17:118 18:129 19:131 20:166 21:91 22:6734 23:52.560036 24:683088.28 
-0.5 1:175 2:43 3:44 4:43 5:45 6:10 7:14 8:7 9:9 10:6 11:11 12:9 13:10 14:9 15:6 16:18 17:8 18:14 19:6 20:16 21:7 22:526 23:50.285714 24:54039.43 
-0.5 1:831 2:210 3:231 4:207 5:183 6:44 7:67 8:48 9:36 10:53 11:53 12:62 13:44 14:44 15:54 16:53 17:48 18:54 19:38 20:59 21:29 22:2442 23:46.931408 24:257125.9 
-0.5 1:1675 2:416 3:444 4:428 5:387 6:88 7:127 8:90 9:80 10:93 11:95 12:117 13:102 14:97 15:110 16:118 17:89 18:108 19:74 20:133 21:66 22:4980 23:48.656716 24:518187.18 
-0.5 1:1279 2:325 3:310 4:338 5:306 6:73 7:83 8:71 9:68 10:62 11:64 12:74 13:84 14:80 15:79 16:102 17:64 18:81 19:57 20:106 21:56 22:3846 23:50.351837 24:395871.24 
-0.5 1:512 2:134 3:132 4:129 5:117 6:35 7:25 8:32 9:29 10:25 11:36 12:27 13:33 14:35 15:26 16:40 17:23 18:26 19:34 20:36 21:18 22:1516 23:48.046875 24:158443.02 
-0.5 1:2591 2:595 3:576 4:692 5:728 6:105 7:156 8:147 9:152 10:98 11:133 12:152 13:154 14:139 15:151 16:228 17:156 18:218 19:97 20:217 21:162 22:8022 23:54.805095 24:799926 
-0.5 1:2595 2:599 3:602 4:686 5:708 6:107 7:162 8:150 9:147 10:105 11:143 12:149 13:157 14:140 15:158 16:220 17:152 18:214 19:91 20:211 21:158 22:7978 23:53.71869 24:801328.98 
-0.5 1:702 2:161 3:187 4:185 5:169 6:35 7:42 8:41 9:35 10:26 11:46 12:39 13:60 14:35 15:59 16:52 17:36 18:58 19:24 20:44 21:36 22:2112 23:50.42735 24:217103.21 
-0.5 1:770 2:197 3:200 4:195 5:178 6:48 7:46 8:47 9:44 10:39 11:47 12:39 13:57 14:39 15:62 16:50 17:39 18:59 19:27 20:47 21:38 22:2286 23:48.441558 24:238227.85 
-0.5 1:104 2:22 3:30 4:32 5:20 6:4 7:6 8:8 9:4 10:5 11:7 12:8 13:5 14:9 15:3 16:4 17:12 18:4 19:9 20:3 21:3 22:312 23:50 24:32352.58 
-0.5 1:383 2:90 3:92 4:102 5:99 6:24 7:26 8:18 9:17 10:11 11:20 12:28 13:27 14:22 15:23 16:35 17:20 18:29 19:17 20:35 21:17 22:1168 23:52.480418 24:118400.37 
-0.5 1:653 2:155 3:164 4:168 5:166 6:38 7:40 8:33 9:37 10:26 11:35 12:41 13:48 14:40 15:37 16:57 17:30 18:44 19:38 20:54 21:27 22:1974 23:51.148545 24:201763.48 
-0.5 1:1149 2:257 3:289 4:289 5:314 6:57 7:71 8:61 9:56 10:47 11:75 12:75 13:71 14:53 15:61 16:110 17:52 18:89 19:61 20:91 21:65 22:3504 23:52.480418 24:354367.51 
-0.5 1:1656 2:368 3:390 4:428 5:470 6:79 7:89 8:88 9:94 10:62 11:98 12:103 13:90 14:72 15:92 16:160 17:89 18:138 19:73 20:146 21:98 22:5108 23:54.227053 24:510728.93 
-0.5 1:2037 2:517 3:543 4:468 5:509 6:116 7:132 8:109 9:126 10:120 11:133 12:111 13:131 14:89 15:126 16:148 17:91 18:159 19:103 20:123 21:106 22:6028 23:47.96269 24:628384.58 
-0.5 1:1710 2:456 3:489 4:361 5:404 6:108 7:130 8:83 9:100 10:112 11:124 12:94 13:121 14:77 15:103 16:106 17:62 18:125 19:93 20:82 21:88 22:4950 23:44.736842 24:527263.43 
-0.5 1:1215 2:319 3:335 4:280 5:281 6:70 7:88 8:64 9:70 10:75 11:90 12:63 13:86 14:62 15:73 16:82 17:51 18:86 19:62 20:67 21:56 22:3552 23:46.17284 24:375273.35 
-0.5 1:1167 2:287 3:325 4:280 5:275 6:59 7:67 8:71 9:66 10:76 11:84 12:63 13:81 14:49 15:86 16:80 17:58 18:80 19:66 20:63 21:56 22:3444 23:47.557841 24:360473.72 
-0.5 1:3161 2:777 3:839 4:774 5:771 6:167 7:194 8:166 9:196 10:193 11:202 12:172 13:212 14:155 15:231 16:206 17:161 18:209 19:151 20:214 21:166 22:9412 23:48.876938 24:976362.1 
-0.5 1:3366 2:822 3:906 4:829 5:809 6:181 7:201 8:167 9:214 10:193 11:226 12:176 13:233 14:170 15:240 16:221 17:172 18:220 19:160 20:231 21:168 22:10008 23:48.663102 24:1039932.6 
-0.5 1:1407 2:352 3:394 4:323 5:338 6:78 7:78 8:78 9:95 10:85 11:103 12:74 13:95 14:59 15:95 16:98 17:60 18:108 19:80 20:79 21:65 22:4136 23:46.979389 24:434195.78 
-0.5 1:1358 2:385 3:378 4:312 5:283 6:93 7:103 8:87 9:76 10:107 11:88 12:65 13:91 14:62 15:94 16:87 17:56 18:98 19:65 20:65 21:50 22:3906 23:43.814433 24:420138.24 
-0.5 1:1875 2:411 3:444 4:518 5:502 6:81 7:99 8:99 9:109 10:83 11:98 12:124 13:108 14:87 15:125 16:169 17:109 18:138 19:90 20:174 21:88 22:5790 23:54.4 24:579505.59 
-0.5 1:2382 2:542 3:537 4:657 5:646 6:113 7:129 8:129 9:135 10:93 11:112 12:145 13:149 14:122 15:145 16:230 17:131 18:179 19:113 20:219 21:120 22:7370 23:54.701931 24:736227.41 
-0.5 1:1417 2:317 3:344 4:377 5:379 6:68 7:87 8:76 9:67 10:48 11:78 12:86 13:105 14:85 15:73 16:139 17:67 18:98 19:79 20:116 21:75 22:4346 23:53.352152 24:437657.46 
-0.5 1:1336 2:305 3:370 4:315 5:346 6:67 7:84 8:65 9:67 10:66 11:95 12:97 13:83 14:70 15:76 16:107 17:47 18:81 19:85 20:105 21:63 22:3994 23:49.476048 24:411854.24 
-0.5 1:1248 2:297 3:301 4:330 5:320 6:75 7:68 8:68 9:60 10:55 11:66 12:76 13:85 14:67 15:85 16:112 17:53 18:75 19:62 20:111 21:62 22:3796 23:52.083333 24:385778.62 
-0.5 1:603 2:145 3:126 4:178 5:154 6:36 7:30 8:35 9:32 10:23 11:24 12:29 13:44 14:38 15:40 16:60 17:34 18:36 19:26 20:59 21:29 22:1870 23:55.058043 24:186893.95 
-0.5 1:195 2:45 3:46 4:54 5:50 6:11 7:7 8:15 9:8 10:5 11:13 12:15 13:10 14:17 15:7 16:11 17:12 18:8 19:16 20:9 21:10 22:598 23:53.333333 24:60341.4 
-0.5 1:219 2:61 3:71 4:33 5:54 6:13 7:23 8:9 9:12 10:20 11:20 12:17 13:7 14:10 15:10 16:8 17:5 18:15 19:11 20:12 21:11 22:612 23:39.726027 24:67200.94 
-0.5 1:5498577 2:1361524 3:1358234 4:1392563 5:1386256 6:303748 7:370851 8:283832 9:303721 10:254399 11:303623 12:316457 13:384421 14:319816 15:303561 16:444426 17:275552 18:384189 19:280864 20:399551 21:273278 22:16554792 23:50.537057 24:1.6989237e+09 
-0.5 1:5498574 2:1361524 3:1358233 4:1392561 5:1386256 6:303748 7:370852 8:283831 9:303721 10:254399 11:303623 12:316457 13:384420 14:319816 15:303560 16:444426 17:275552 18:384189 19:280864 20:399550 21:273278 22:16554782 23:50.537048 24:1.6989227e+09 
-0.5 1:1314 2:316 3:267 4:335 5:396 6:59 7:77 8:69 9:87 10:48 11:60 12:82 13:63 14:64 15:63 16:128 17:72 18:122 19:52 20:123 21:87 22:4090 23:55.631659 24:405010.82 
-0.5 1:1504 2:372 3:337 4:373 5:422 6:72 7:97 8:79 9:95 10:63 11:79 12:92 13:83 14:75 15:78 16:134 17:77 18:133 19:63 20:126 21:89 22:4598 23:52.859043 24:463872.46 
-0.5 1:669 2:181 3:134 4:153 5:201 6:42 7:49 8:30 9:48 10:34 11:24 12:36 13:33 14:30 15:32 16:57 17:29 18:64 19:21 20:56 21:53 22:2046 23:52.914798 24:205964.33 
-0.5 1:1460 2:365 3:323 4:368 5:404 6:84 7:89 8:80 9:88 10:59 11:78 12:72 13:90 14:77 15:76 16:130 17:72 18:122 19:56 20:113 21:97 22:4464 23:52.876712 24:450570.01 
-0.5 1:1490 2:346 3:359 4:392 5:393 6:72 7:81 8:92 9:84 10:48 11:96 12:82 13:103 14:90 15:85 16:133 17:73 18:120 19:66 20:113 21:82 22:4550 23:52.684564 24:460289.98 
-0.5 1:781 2:188 3:182 4:202 5:209 6:35 7:46 8:53 9:49 10:30 11:45 12:44 13:46 14:51 15:42 16:69 17:35 18:67 19:31 20:63 21:42 22:2384 23:52.62484 24:241202.59 
-0.5 1:129 2:44 3:39 4:22 5:24 6:14 7:8 8:7 9:10 10:9 11:13 12:5 13:6 14:10 15:4 16:6 17:2 18:6 19:8 20:7 21:2 22:350 23:35.658915 24:39845.53 
-0.5 1:154 2:38 3:43 4:26 5:47 6:10 7:9 8:4 9:14 10:9 11:10 12:14 13:7 14:5 15:6 16:6 17:6 18:13 19:15 20:6 21:11 22:454 23:47.402597 24:47151.07 
-0.5 1:474 2:108 3:142 4:112 5:112 6:21 7:33 8:23 9:26 10:26 11:41 12:37 13:25 14:35 15:22 16:26 17:25 18:22 19:33 20:34 21:17 22:1396 23:47.257384 24:146299.17 
-0.5 1:1524 2:372 3:408 4:359 5:385 6:80 7:99 8:69 9:98 10:75 11:104 12:98 13:91 14:95 15:80 16:106 17:68 18:97 19:84 20:121 21:69 22:4536 23:48.818898 24:470161.57 
-0.5 1:3526 2:819 3:840 4:935 5:932 6:171 7:212 8:179 9:202 10:142 11:186 12:220 13:234 14:190 15:214 16:320 17:180 18:262 19:169 20:311 21:165 22:10786 23:52.949518 24:1089381.4 
-0.5 1:3527 2:816 3:867 4:931 5:913 6:160 7:237 8:184 9:181 10:146 11:199 12:228 13:234 14:193 15:212 16:319 17:178 18:264 19:159 20:306 21:162 22:10742 23:52.282393 24:1089843.7 
-0.5 1:1161 2:280 3:319 4:275 5:287 6:49 7:101 8:50 9:70 10:65 11:75 12:81 13:70 14:66 15:72 16:75 17:55 18:90 19:42 20:93 21:54 22:3446 23:48.406546 24:358280.27 
-0.5 1:257 2:66 3:61 4:74 5:56 6:12 7:18 8:23 9:9 10:16 11:15 12:11 13:13 14:22 15:10 16:19 17:16 18:13 19:11 20:15 21:11 22:774 23:50.583658 24:79800.85 
-0.5 1:146 2:39 3:41 4:34 5:32 6:11 7:8 8:9 9:5 10:7 11:11 12:10 13:10 14:7 15:8 16:11 17:6 18:8 19:10 20:7 21:4 22:424 23:45.205479 24:45151.81 
-0.5 1:149 2:38 3:45 4:37 5:29 6:9 7:11 8:8 9:9 10:13 11:9 12:10 13:11 14:9 15:13 16:4 17:7 18:6 19:9 20:7 21:4 22:430 23:44.295302 24:46175.45 
-0.5 1:188 2:44 3:59 4:50 5:35 6:8 7:12 8:15 9:6 10:19 11:13 12:10 13:11 14:7 15:18 16:12 17:10 18:7 19:10 20:11 21:6 22:546 23:45.212766 24:58328.16 
-0.5 1:120 2:34 3:29 4:34 5:23 6:8 7:9 8:8 9:5 10:8 11:4 12:5 13:9 14:7 15:10 16:7 17:8 18:7 19:4 20:6 21:5 22:354 23:47.5 24:37332.82 
-0.5 1:104 2:19 3:41 4:21 5:23 6:2 7:8 8:4 9:4 10:7 11:15 12:9 13:6 14:4 15:8 16:5 17:4 18:5 19:6 20:7 21:4 22:296 23:42.307692 24:32005.37 
-0.26171875 1:5498577 2:1361524 3:1358234 4:1392563 5:1386256 6:303747 7:370851 8:283832 9:303721 10:254399 11:303623 12:316457 13:384421 14:319817 15:303561 16:444426 17:275552 18:384189 19:280864 20:399551 21:273278 22:16554792 23:50.537057 24:1.6989237e+09 
-0.5 1:5498574 2:1361523 3:1358233 4:1392562 5:1386256 6:303747 7:370850 8:283832 9:303721 10:254399 11:303623 12:316457 13:384420 14:319816 15:303561 16:444426 17:275552 18:384189 19:280864 20:399551 21:273278 22:16554784 23:50.537067 24:1.6989227e+09 
-0.5 1:312 2:77 3:84 4:73 5:78 6:13 7:26 8:17 9:16 10:15 11:19 12:24 13:16 14:18 15:13 16:24 17:15 18:27 19:15 20:22 21:14 22:926 23:48.397436 24:96275.36 
-0.5 1:446 2:102 3:122 4:97 5:125 6:18 7:31 8:24 9:23 10:21 11:28 12:36 13:20 14:18 15:20 16:39 17:16 18:40 19:26 20:33 21:24 22:1336 23:49.775785 24:137157.35 
-0.5 1:365 2:86 3:100 4:71 5:108 6:19 7:22 8:19 9:22 10:18 11:22 12:30 13:18 14:13 15:18 16:31 17:8 18:32 19:27 20:25 21:21 22:1088 23:49.041096 24:111978.35 
-0.5 1:1023 2:267 3:254 4:250 5:252 6:61 7:67 8:56 9:60 10:46 11:62 12:52 13:66 14:66 15:40 16:82 17:54 18:72 19:57 20:66 21:46 22:3050 23:49.071359 24:316084.51 
-0.5 1:2594 2:602 3:628 4:661 5:703 6:115 7:149 8:153 9:154 10:104 11:151 12:177 13:145 14:154 15:138 16:218 17:134 18:199 19:139 20:212 21:129 22:7916 23:52.582884 24:800501.56 
-0.5 1:2535 2:580 3:584 4:670 5:701 6:112 7:128 8:158 9:153 10:100 11:138 12:171 13:128 14:147 15:139 16:228 17:138 18:193 19:132 20:228 21:132 22:7812 23:54.08284 24:782611.01 
-0.5 1:1107 2:255 3:250 4:308 5:294 6:53 7:55 8:64 9:64 10:49 11:59 12:58 13:60 14:66 15:44 16:117 17:70 18:69 19:67 20:103 21:53 22:3418 23:54.38121 24:342348.84 
-0.5 1:1336 2:313 3:365 4:331 5:327 6:72 7:74 8:77 9:72 10:55 11:96 12:82 13:88 14:70 15:76 16:112 17:66 18:99 19:75 20:93 21:57 22:3988 23:49.251497 24:412611.77 
-0.5 1:1507 2:387 3:370 4:347 5:403 6:91 7:89 8:78 9:110 10:64 11:95 12:87 13:86 14:80 15:80 16:111 17:66 18:134 19:67 20:107 21:85 22:4514 23:49.76775 24:464555.13 
-0.5 1:1676 2:435 3:367 4:412 5:462 6:96 7:105 8:80 9:127 10:71 11:79 12:95 13:104 14:92 15:92 16:133 17:78 18:150 19:72 20:133 21:93 22:5100 23:52.147971 24:517136.57 
-0.5 1:1218 2:298 3:306 4:304 5:310 6:63 7:79 8:63 9:74 10:52 11:69 12:81 13:86 14:63 15:78 16:96 17:55 18:101 19:62 20:89 21:52 22:3664 23:50.410509 24:376161.62 
-0.5 1:5757 2:1530 3:1242 4:1705 5:1280 6:387 7:277 8:426 9:323 10:280 11:226 12:266 13:417 14:446 15:385 16:373 17:392 18:300 19:301 20:361 21:259 22:17484 23:51.849922 24:1788480.7 
-0.5 1:910 2:218 3:235 4:209 5:248 6:52 7:56 8:39 9:51 10:46 11:53 12:68 13:47 14:45 15:44 16:74 17:40 18:56 19:61 20:76 21:47 22:2734 23:50.21978 24:280303.55 
-0.5 1:1175 2:307 3:313 4:260 5:295 6:79 7:82 8:56 9:62 10:66 11:70 12:81 13:68 14:63 15:60 16:85 17:45 18:71 19:72 20:84 21:56 22:3460 23:47.234043 24:362287.05 
-0.5 1:1405 2:298 3:379 4:340 5:388 6:56 7:78 8:72 9:75 10:58 11:93 12:91 13:103 14:59 15:88 16:139 17:49 18:108 19:86 20:111 21:71 22:4266 23:51.814947 24:432775.32 
-0.5 1:2184 2:527 3:612 4:483 5:562 6:117 7:145 8:102 9:128 10:108 11:156 12:136 13:157 14:100 15:133 16:174 17:69 18:168 19:123 20:148 21:104 22:6458 23:47.847985 24:672770.7 
-0.5 1:788 2:226 3:241 4:147 5:174 6:60 7:67 8:29 9:51 10:51 11:64 12:48 13:56 14:37 15:47 16:33 17:25 18:59 19:41 20:33 21:34 22:2218 23:40.736041 24:242824.15 
-0.5 1:463 2:95 3:131 4:111 5:126 6:17 7:27 8:21 9:25 10:20 11:36 12:30 13:30 14:19 15:32 16:33 17:23 18:34 19:21 20:33 21:30 22:1400 23:51.187905 24:142600.7 
-0.5 1:522 2:116 3:149 4:121 5:136 6:25 7:32 8:23 9:29 10:25 11:38 12:35 13:36 14:24 15:36 16:33 17:24 18:36 19:27 20:34 21:31 22:1558 23:49.233716 24:160837.39 
-0.5 1:537 2:157 3:175 4:111 5:94 6:42 7:57 8:27 9:16 10:37 11:52 12:36 13:32 14:32 15:33 16:22 17:17 18:30 19:16 20:28 21:18 22:1484 23:38.175047 24:166150.19 
-0.5 1:480 2:149 3:194 4:78 5:59 6:36 7:67 8:22 9:9 10:62 11:48 12:31 13:34 14:16 15:37 16:14 17:10 18:21 19:22 20:11 21:5 22:1234 23:28.541667 24:148439.05 
-0.5 1:741 2:222 3:283 4:115 5:121 6:54 7:85 8:41 9:22 10:74 11:73 12:56 13:47 14:32 15:45 16:25 17:13 18:43 19:46 20:14 21:14 22:1954 23:31.848853 24:228486.21 
-0.5 1:1047 2:274 3:407 4:180 5:186 6:59 7:106 8:61 9:30 10:82 11:120 12:77 13:71 14:54 15:60 16:38 17:24 18:62 19:64 20:20 21:33 22:2826 23:34.95702 24:322688.11 
-0.5 1:895 2:230 3:363 4:154 5:148 6:51 7:96 8:40 9:25 10:68 11:110 12:64 13:69 14:46 15:53 16:28 17:22 18:48 19:52 20:18 21:27 22:2394 23:33.743017 24:275974.26 
-0.5 1:720 2:223 3:272 4:110 5:115 6:59 7:91 8:21 9:26 10:56 11:74 12:46 13:65 14:39 15:37 16:22 17:9 18:44 19:38 20:12 21:17 22:1890 23:31.25 24:222072.17 
-0.5 1:1853 2:414 3:530 4:444 5:465 6:83 7:125 8:96 9:81 10:88 11:124 12:125 13:148 14:81 15:118 16:148 17:77 18:134 19:117 20:103 21:95 22:5524 23:49.055586 24:571544.86 
-0.5 1:4853 2:981 3:1158 4:1341 5:1373 6:165 7:233 8:305 9:227 10:181 11:237 12:323 13:340 14:200 15:344 16:474 17:269 18:385 19:267 20:373 21:293 22:15134 23:55.924171 24:1498041 
-0.5 1:5729 2:1161 3:1273 4:1645 5:1650 6:198 7:266 8:369 9:268 10:188 11:240 12:361 13:398 14:249 15:400 16:586 17:341 18:467 19:281 20:468 21:363 22:18048 23:57.5144 24:1769582.4 
-0.5 1:3510 2:642 3:737 4:1034 5:1097 6:100 7:151 8:200 9:172 10:80 11:137 12:253 13:213 14:151 15:214 16:389 17:235 18:293 19:180 20:341 21:244 22:11282 23:60.712251 24:1082918.3 
-0.5 1:3540 2:704 3:771 4:1010 5:1055 6:117 7:161 8:219 9:176 10:94 11:149 12:253 13:216 14:176 15:220 16:362 17:216 18:287 19:182 20:323 21:232 22:11210 23:58.333333 24:1092633.1 
-0.5 1:2096 2:473 3:477 4:585 5:561 6:84 7:129 8:127 9:95 10:71 11:93 12:140 13:146 14:121 15:126 16:186 17:127 18:160 19:101 20:160 21:113 22:6484 23:54.675573 24:648081.29 
-0.5 1:1857 2:385 3:462 4:514 5:496 6:58 7:123 8:99 9:80 10:65 11:100 12:136 13:127 14:91 15:114 16:159 17:126 18:147 19:90 20:138 21:100 22:5734 23:54.388799 24:573785.78 
-0.5 1:1800 2:355 3:445 4:501 5:499 6:55 7:111 8:93 9:75 10:57 11:92 12:129 13:131 14:87 15:111 16:165 17:119 18:136 19:94 20:139 21:112 22:5600 23:55.555556 24:555806.17 
-0.5 1:2386 2:509 3:544 4:668 5:665 6:93 7:143 8:140 9:103 10:78 11:106 12:150 13:170 14:139 15:131 16:220 17:149 18:170 19:124 20:180 21:154 22:7438 23:55.867561 24:737136.66 
-0.5 1:2895 2:693 3:637 4:807 5:758 6:145 7:170 8:192 9:138 10:106 11:135 12:171 13:179 14:173 15:159 16:240 17:193 18:222 19:126 20:201 21:173 22:8920 23:54.058722 24:895710.15 
-0.5 1:2266 2:549 3:511 4:623 5:583 6:118 7:145 8:143 9:102 10:86 11:110 12:143 13:141 14:129 15:126 16:183 17:153 18:176 19:99 20:154 21:131 22:6944 23:53.221536 24:701099.37 
-0.5 1:1894 2:444 3:471 4:484 5:495 6:94 7:121 8:103 9:92 10:73 11:106 12:121 13:136 14:107 15:99 16:152 17:109 18:137 19:110 20:119 21:106 22:5746 23:51.689546 24:584837.35 
-0.5 1:1665 2:396 3:418 4:429 5:422 6:81 7:104 8:92 9:88 10:63 11:91 12:103 13:127 14:100 15:92 16:133 17:90 18:122 19:96 20:106 21:85 22:5032 23:51.111111 24:514464.6 
-0.5 1:758 2:174 3:205 4:184 5:195 6:34 7:53 8:34 9:40 10:29 11:47 12:50 13:63 14:41 15:44 16:57 17:36 18:58 19:45 20:45 21:42 22:2274 23:50 24:233839.89 
-0.5 1:1196 2:337 3:378 4:250 5:231 6:85 7:119 8:53 9:48 10:89 11:102 12:69 13:83 14:60 15:66 16:66 17:49 18:72 19:55 20:56 21:44 22:3354 23:40.217391 24:369656.11 
-0.5 1:209 2:46 3:52 4:61 5:50 6:11 7:5 8:15 9:12 10:12 11:13 12:8 13:13 14:9 15:17 16:19 17:14 18:11 19:12 20:16 21:10 22:640 23:53.110048 24:64784.21 
-0.5 1:745 2:236 3:265 4:116 5:128 6:62 7:73 8:37 9:38 10:66 11:80 12:40 13:46 14:33 15:38 16:28 17:15 18:50 19:41 20:16 21:20 22:1978 23:32.751678 24:229749.1 
-0.5 1:5498561 2:1361519 3:1358227 4:1392561 5:1386254 6:303747 7:370849 8:283831 9:303721 10:254397 11:303620 12:316456 13:384420 14:319815 15:303561 16:444425 17:275552 18:384188 19:280863 20:399551 21:273278 22:16554752 23:50.537131 24:1.6989188e+09 
-0.5 1:180 2:78 3:34 4:38 5:30 6:23 7:16 8:14 9:13 10:11 11:5 12:6 13:8 14:17 15:3 16:6 17:8 18:15 19:5 20:5 21:5 22:496 23:37.777778 24:55975.97 
-0.5 1:887 2:218 3:194 4:194 5:281 6:47 7:64 8:39 9:51 10:35 11:40 12:59 13:52 14:34 15:33 16:95 17:29 18:86 19:48 20:71 21:62 22:2724 23:53.551297 24:272436.54 
-0.5 1:950 2:247 3:209 4:222 5:272 6:56 7:74 8:47 9:53 10:44 11:42 12:54 13:60 14:42 15:39 16:99 17:37 18:88 19:45 20:74 21:58 22:2888 23:52 24:292697.56 
-0.5 1:2486 2:555 3:536 4:655 5:740 6:104 7:137 8:153 9:135 10:92 11:116 12:172 13:118 14:137 15:122 16:248 17:129 18:197 19:122 20:236 21:156 22:7762 23:56.11424 24:766519.57 
-0.5 1:2683 2:606 3:604 4:693 5:780 6:114 7:154 8:160 9:150 10:110 11:130 12:181 13:139 14:143 15:138 16:256 17:136 18:211 19:137 20:238 21:162 22:8312 23:54.90123 24:827255.34 
-0.5 1:104 2:17 3:26 4:32 5:29 6:6 7:6 8:2 9:2 10:5 11:6 12:7 13:7 14:2 15:7 16:11 17:7 18:3 19:6 20:11 21:8 22:330 23:58.653846 24:32172.41 
-0.5 1:710 2:172 3:187 4:175 5:176 6:39 7:46 8:30 9:43 10:38 11:45 12:40 13:52 14:36 15:38 16:57 17:38 18:46 19:45 20:49 21:27 22:2122 23:49.43662 24:219280.69 
-0.5 1:1155 2:294 3:317 4:276 5:268 6:68 7:82 8:58 9:60 10:66 11:80 12:70 13:74 14:59 15:65 16:82 17:59 18:76 19:62 20:74 21:44 22:3398 23:47.099567 24:356891.52 
-0.5 1:538 2:142 3:162 4:112 5:122 6:34 7:49 8:29 9:16 10:31 11:43 12:42 13:29 14:29 15:30 16:33 17:17 18:35 19:22 20:34 21:26 22:1544 23:43.494424 24:165923.88 
-0.5 1:445 2:124 3:141 4:90 5:90 6:29 7:49 8:18 9:18 10:36 11:37 12:27 13:27 14:22 15:20 16:27 17:16 18:28 19:20 20:24 21:16 22:1250 23:40.449438 24:137401.76 
-0.5 1:2556 2:555 3:583 4:676 5:742 6:98 7:176 8:119 9:123 10:100 11:126 12:164 13:156 14:121 15:118 16:269 17:136 18:198 19:126 20:232 21:160 22:7948 23:55.477308 24:788308.34 
-0.5 1:1833 2:374 3:388 4:504 5:567 6:65 7:111 8:88 9:86 10:62 11:73 12:126 13:104 14:74 15:86 16:215 17:104 18:149 19:95 20:183 21:118 22:5808 23:58.428805 24:565070.06 
-0.5 1:306 2:87 3:93 4:62 5:64 6:22 7:26 8:18 9:15 10:20 11:24 12:17 13:21 14:20 15:14 16:17 17:10 18:19 19:18 20:12 21:12 22:864 23:41.176471 24:94475.35 
-0.5 1:5498546 2:1361516 3:1358229 4:1392553 5:1386248 6:303746 7:370852 8:283831 9:303717 10:254398 11:303623 12:316456 13:384418 14:319814 15:303560 16:444423 17:275549 18:384188 19:280860 20:399549 21:273277 22:16554694 23:50.537015 24:1.6989141e+09 
-0.5 1:1513 2:355 3:381 4:378 5:399 6:61 7:92 8:104 9:84 10:56 11:98 12:105 13:82 14:96 15:89 16:107 17:78 18:129 19:61 20:106 21:90 22:4580 23:51.354924 24:466927.3 
